,weights,success_tries
0,[-3.          6.54675551 -0.17206367],67
1,[-2.          4.67680941 -0.29137572],34
2,[-2.          4.42952437 -0.15234626],36
3,[-2.          4.36153076  0.02572024],30
4,[-2.          4.44932917  0.05057164],28
5,[-2.          4.38414033 -0.07840029],26
6,[-4.          8.79379755  0.24592351],120
7,[-3.          6.91508113 -0.37746847],71
8,[-4.          8.93383101 -0.41646111],130
9,[-3.00000000e+00  6.71274572e+00  1.83603267e-03],69
10,[-2.          4.38129188 -0.05055651],36
11,[-4.          8.96620571 -0.2271503 ],128
12,[-3.          6.72090071  0.04490006],69
13,[-2.          4.33400782 -0.07427184],36
14,[-3.00000000e+00  6.51945324e+00  3.59859928e-03],71
15,[-2.          4.44749688  0.04165048],28
16,[-2.          4.63306627 -0.24649638],34
17,[-2.00000000e+00  4.40752320e+00 -2.54250544e-03],36
18,[-3.          6.55165992  0.184534  ],71
19,[-3.          6.88556173 -0.44141399],75
20,[-3.          6.63789817 -0.08509749],65
21,[-3.          6.75600253 -0.18177656],71
22,[-3.         6.7774402 -0.0509277],71
23,[-3.          6.55383002  0.12608675],71
24,[-2.          4.45300785 -0.01027251],26
25,[-2.          4.58796    -0.17920068],36
26,[-2.          4.37242012 -0.12812297],32
27,[-2.          4.43019723 -0.10395027],34
28,[-2.          4.39388425 -0.12726394],36
29,[-3.          7.04195046 -0.5297724 ],73
30,[-3.          6.82789374 -0.33506364],71
31,[-2.          4.48591737 -0.097272  ],36
32,[-3.          6.58239641 -0.20343626],77
33,[-3.          6.65792853 -0.03897236],77
34,[-4.          8.77447979 -0.06844666],128
35,[-2.          4.41428268  0.146339  ],22
36,[-4.          8.57118199 -0.12149971],122
37,[-3.          6.49787583 -0.10327435],57
38,[-2.          4.50353467 -0.04943635],28
39,[-3.          6.68335737  0.15856261],81
40,[-3.          6.85420615 -0.29598496],83
41,[-2.          4.50968994 -0.1519822 ],38
42,[-3.          6.52468494 -0.0562958 ],67
43,[-1.          2.30281104 -0.11093197],7
44,[-3.          6.76859557 -0.11870159],83
45,[-2.          4.58886579 -0.15990157],28
46,[-2.          4.53613322 -0.18802842],34
47,[-3.          6.57254676 -0.02071022],73
48,[-3.          6.70433325  0.03195276],69
49,[-3.          6.64849258 -0.09997125],75
50,[-3.          6.55017248  0.11762608],75
51,[-3.          6.55508787 -0.07904717],89
52,[-2.          4.46786657 -0.20441294],40
53,[-3.          6.65566461 -0.12824815],73
54,[-3.          6.60547759  0.00724927],73
55,[-2.          4.5776152  -0.28230997],34
56,[-3.          6.67363951 -0.08317466],65
57,[-2.          4.48574208 -0.21834175],32
58,[-3.          6.99585294 -0.45503998],85
59,[-2.          4.36908356 -0.12372578],36
60,[-4.          9.22570584 -0.35416415],134
61,[-3.          6.46922706 -0.0865514 ],67
62,[-2.          4.37073435 -0.02874882],28
63,[-3.          6.57608196  0.03205782],71
64,[-3.          6.50974898  0.10231501],83
65,[-3.          6.58654668  0.0464495 ],61
66,[-1.          2.22982807  0.05031649],13
67,[-2.          4.38882405 -0.14901077],24
68,[-3.          6.99991565 -0.52713509],81
69,[-2.          4.4380205   0.12232956],30
70,[-3.          6.70386721  0.17268494],75
71,[-3.          6.70603493 -0.09940736],67
72,[-2.          4.35656248 -0.0386451 ],36
73,[-2.          4.44702671 -0.17669161],32
74,[-2.          4.28515    -0.06360292],28
75,[-4.          8.82479196 -0.19032481],132
76,[-2.          4.44616842  0.14843005],32
77,[-2.          4.35304276  0.11290556],30
78,[-3.          6.70282798 -0.27369881],83
79,[-3.          6.49261065  0.09022653],67
80,[-2.          4.50987309 -0.06270842],28
81,[-3.          6.46224463 -0.03750296],69
82,[-3.          6.83645807 -0.14735043],67
83,[-3.          6.56048812 -0.20576802],71
84,[-3.          6.52836686  0.11450346],69
85,[-3.          6.47243023 -0.10843806],67
86,[-3.          6.44195635 -0.11057997],57
87,[-2.          4.40415458  0.11621641],34
88,[-2.          4.36735159 -0.03219521],30
89,[-3.          6.6235833   0.11952302],75
90,[-3.          6.61289909 -0.15022594],79
91,[-5.         11.31844975 -0.39507397],205
92,[-3.          6.62748015  0.09626516],63
93,[-3.          6.82183741 -0.25470358],79
94,[-2.          4.57017693 -0.26148311],36
95,[-2.          4.48433346 -0.19490594],34
96,[-3.          6.67612969 -0.16261333],81
97,[-2.          4.44657719  0.01699839],28
98,[-2.          4.5563566  -0.20807084],32
99,[-4.          8.78729196  0.12501414],130
100,[-3.          6.55726278 -0.12397742],79
101,[-3.          6.46357621 -0.00830203],73
102,[-3.          6.69311783  0.00986997],67
103,[-3.          6.72145391 -0.20978913],73
104,[-3.          6.59802822 -0.14261134],65
105,[-4.          8.97273684 -0.31631294],132
106,[-3.          6.73858954 -0.0997429 ],81
107,[-3.          6.95783016 -0.47912842],87
108,[-4.          9.10624635 -0.32571718],138
109,[-3.          6.64747457  0.08302749],81
110,[-4.          8.66500339 -0.08064964],128
111,[-3.          6.4718677  -0.10545343],67
112,[-4.          8.80457811 -0.11464974],132
113,[-4.          8.71139014 -0.12726029],124
114,[-3.          6.67666306 -0.20632086],69
115,[-3.          6.59405735  0.10904731],73
116,[-2.          4.55565956 -0.19489597],34
117,[-4.          8.69510535  0.05475873],122
118,[-3.          6.56285547 -0.1045847 ],75
119,[-3.          6.7298346  -0.26915624],75
120,[-2.          4.56087969 -0.23208131],36
121,[-2.          4.46580449 -0.11006001],38
122,[-3.          6.43757228 -0.04271684],75
123,[-3.          6.73537525 -0.03048673],79
124,[-3.          6.4707385   0.06845918],69
125,[-3.          6.54696562 -0.10406364],71
126,[-2.          4.49614117 -0.07655399],32
127,[-4.          8.93820143 -0.02870182],128
128,[-3.          6.55915283 -0.1663704 ],73
129,[-2.          4.37457531 -0.04836114],30
130,[-3.00000000e+00  6.67074963e+00 -4.46660051e-03],65
131,[-2.          4.38467882 -0.03360044],30
132,[-2.          4.509449    0.00637846],34
133,[-3.          6.8004825  -0.08700547],71
134,[-3.          6.78527095 -0.37204383],71
135,[-3.          6.59242884 -0.16599712],67
136,[-3.          6.72556996 -0.31449587],71
137,[-3.          6.50097207 -0.13822532],65
138,[-3.          6.80839854 -0.34748367],77
139,[-3.          6.64757771  0.05470885],71
140,[-3.          6.73101302 -0.29805454],63
141,[-3.          6.59882978 -0.19479796],69
142,[-4.          8.64025931  0.12667901],132
143,[-3.          6.67261479  0.13223131],69
144,[-3.          6.69083468 -0.01861755],61
145,[-3.00000000e+00  6.74389578e+00  6.43589213e-03],77
146,[-3.          6.5647205   0.19313182],75
147,[-2.          4.36391359 -0.06787234],26
148,[-3.          6.56547325  0.12569284],65
149,[-3.          6.63802293 -0.09015445],77
150,[-2.          4.45314029  0.1332018 ],36
151,[-2.          4.69321988 -0.3478572 ],38
152,[-4.          8.65413432  0.15119779],126
153,[-3.          6.60889463  0.14720249],69
154,[-3.          6.64571061 -0.07599705],71
155,[-4.          8.74764468  0.26375704],124
156,[-3.          6.49460726  0.02660099],73
157,[-3.          6.83926113 -0.3476477 ],77
158,[-3.          6.78729758 -0.12468364],79
159,[-3.          6.72625554  0.00809238],73
160,[-2.          4.32367282 -0.08077824],26
161,[-2.          4.65069989 -0.33499404],34
162,[-2.          4.5745669  -0.13724118],36
163,[-3.          6.7203269  -0.03347715],79
164,[-2.          4.29069914 -0.03694672],26
165,[-3.          6.47550838 -0.06152803],73
166,[-1.          2.30143934 -0.14545802],13
167,[-3.          6.67176716 -0.10004184],71
168,[-4.          8.85828298 -0.20954692],140
169,[-1.          2.24058213 -0.08742632],9
170,[-3.          6.76200676 -0.34537941],71
171,[-2.          4.27589059 -0.02404096],24
172,[-2.          4.65419217 -0.31704789],32
173,[-2.          4.38322484 -0.11635577],28
174,[-2.          4.57785711 -0.17141975],30
175,[-2.          4.42789159 -0.02714066],34
176,[-3.          6.68353684 -0.13724039],73
177,[-2.          4.68883944 -0.32009042],34
178,[-3.          6.65804699 -0.0120906 ],73
179,[-2.          4.35011002  0.02708467],30
180,[-3.          6.64349818 -0.16491122],61
181,[-3.          6.65775332 -0.1082413 ],73
182,[-3.          6.69340152  0.1032746 ],73
183,[-2.          4.27022136 -0.04604062],36
184,[-3.          6.64790618 -0.19816174],71
185,[-2.          4.46186725 -0.0048471 ],32
186,[-2.          4.43601472 -0.13415543],28
187,[-3.          6.86349973 -0.21206981],79
188,[-4.          8.78949079 -0.18071708],124
189,[-3.          6.66313608  0.0680369 ],63
190,[-4.          8.74408416  0.2483581 ],126
191,[-3.          6.53265331 -0.13500901],71
192,[-2.          4.38912102  0.03555219],28
193,[-3.          6.45363987  0.02294622],57
194,[-3.          6.52305608 -0.0380204 ],67
195,[-3.          6.57293906  0.06776609],71
196,[-3.          6.89904949 -0.22572246],79
197,[-3.          6.62880339  0.04603349],69
198,[-3.          6.59794764  0.11319485],67
199,[-1.          2.18456677  0.07051253],13
200,[-2.          4.66361799 -0.30131253],30
201,[-2.          4.47901578 -0.11836267],40
202,[-4.00000000e+00  8.65305752e+00  7.48814415e-04],134
203,[-4.          8.97964813 -0.06447353],128
204,[-3.          6.75931103 -0.01687864],81
205,[-3.          6.59114074 -0.10510771],69
206,[-3.          6.79392145 -0.05702323],75
207,[-3.          6.55105053 -0.19141449],67
208,[-3.          6.55645108 -0.01194862],63
209,[-3.          6.71584748 -0.07608171],67
210,[-3.          6.44591377 -0.04350329],75
211,[-3.          6.54770328  0.03184703],61
212,[-3.          6.76640813 -0.02792458],77
213,[-3.          6.62217169 -0.25006313],77
214,[-2.          4.37201639 -0.08256175],32
215,[-3.          6.81674365 -0.06839895],75
216,[-3.          6.55688535  0.00874627],65
217,[-2.          4.42785094  0.15434338],30
218,[-3.          6.65813944 -0.15947355],73
219,[-2.          4.41938512 -0.04176924],34
220,[-2.          4.37812452 -0.05050522],30
221,[-2.          4.46359784 -0.20633199],42
222,[-3.          6.74595953 -0.29276912],83
223,[-3.          6.54487929  0.06429987],73
224,[-3.          6.44813528 -0.07338999],71
225,[-2.          4.48898494 -0.13778169],36
226,[-3.          6.82968352 -0.31548858],71
227,[-3.          6.50952481 -0.11851258],69
228,[-3.          6.50724026  0.04532643],65
229,[-2.          4.5262485  -0.19259545],34
230,[-3.          6.48619665  0.08945774],75
231,[-2.          4.54627741 -0.09932712],40
232,[-2.          4.70851393 -0.36865558],40
233,[-3.          6.85111268 -0.18103523],77
234,[-3.          6.51337598 -0.09923471],69
235,[-3.          6.49866523 -0.13062459],71
236,[-3.          6.66567236 -0.01568645],69
237,[-3.          6.61526891  0.11905412],69
238,[-3.          6.55907075 -0.04087873],63
239,[-3.          6.54187227 -0.12446689],69
240,[-3.          6.8426803  -0.16355822],65
241,[-3.          6.62674585 -0.04119279],75
242,[-2.          4.43215845  0.03495505],30
243,[-3.          6.72819157 -0.14905265],59
244,[-2.          4.53961878 -0.19253386],42
245,[-2.          4.45982888  0.02880783],40
246,[-2.          4.39517471 -0.08115344],28
247,[-1.          2.21348353  0.0936428 ],7
248,[-2.          4.33467437 -0.07533471],38
249,[-3.          6.52714036  0.13676466],69
250,[-3.          6.49333514 -0.09201913],73
251,[-2.          4.48700685 -0.18117314],34
252,[-4.          8.80867738 -0.12884465],112
253,[-2.          4.50592577 -0.17234382],42
254,[-3.          6.60007394  0.10988446],69
255,[-3.          6.62500046 -0.08919623],65
256,[-3.          6.68685603 -0.10365893],73
257,[-2.          4.46727376 -0.10967072],36
258,[-3.          6.50735488 -0.0078916 ],69
259,[-3.          6.7713601  -0.05265711],79
260,[-3.00000000e+00  6.46865040e+00 -3.38152395e-03],75
261,[-3.          6.44925916 -0.05788921],77
262,[-3.          6.50630368 -0.03197117],65
263,[-3.          6.54712134  0.18700348],71
264,[-2.          4.48570653 -0.17017185],34
265,[-3.          6.60027386  0.11049021],75
266,[-3.          6.58659978 -0.03603519],61
267,[-3.          6.6953457  -0.28609728],71
268,[-4.          8.85457204 -0.22280537],110
269,[-2.          4.32203082 -0.02679129],28
270,[-2.          4.42194094  0.09073925],36
271,[-3.          6.65724508 -0.07056291],65
272,[-2.          4.43204603  0.14830475],32
273,[-3.          6.71341644 -0.15339797],69
274,[-2.          4.6134112  -0.16892952],36
275,[-2.          4.34107528  0.0095742 ],28
276,[-3.00000000e+00  6.60331687e+00 -1.83903590e-03],71
277,[-3.          6.70612965 -0.23590264],77
278,[-2.          4.49891562 -0.04599091],28
279,[-2.          4.326661   -0.06808134],34
280,[-3.          6.50568476  0.0973511 ],69
281,[-3.          6.61534065  0.02495316],79
282,[-3.          6.54280782  0.11718699],59
283,[-3.          6.49585682  0.02307797],61
284,[-3.         6.7459753  0.0446988],65
285,[-3.          6.86450795 -0.14988505],67
286,[-2.          4.32812257 -0.0761687 ],30
287,[-3.          6.87823512 -0.26425189],81
288,[-3.          6.61545128  0.00922447],71
289,[-2.          4.40311131  0.13488182],44
290,[-3.          6.58975903  0.05274054],65
291,[-2.          4.33574899  0.0764392 ],30
292,[-4.          8.95561665 -0.40272341],122
293,[-2.          4.32024207  0.01077699],34
294,[-3.          6.84766194 -0.14195959],69
295,[-2.          4.46504279  0.09119724],30
296,[-2.          4.37130844 -0.04131731],36
297,[-3.          6.83690286 -0.36440148],79
298,[-2.          4.44172253  0.04188781],30
299,[-3.          6.52665061 -0.04929285],69
300,[-3.          6.89566681 -0.3189001 ],73
301,[-1.          2.15519475  0.00366591],5
302,[-3.          6.62912085  0.26599861],69
303,[-3.          6.56739873 -0.09534644],67
304,[-1.          2.17424172 -0.04938547],13
305,[-3.          6.50196801  0.04431703],69
306,[-1.          2.14326768 -0.02264316],9
307,[-3.          6.47476608 -0.03839807],65
308,[-1.          2.1939287   0.05773683],13
309,[-4.00000000e+00  8.67575521e+00 -3.44868851e-03],120
310,[-3.          6.80206825 -0.36770603],71
311,[-2.          4.3658261   0.10315821],32
312,[-3.          6.51556761  0.01575075],81
313,[-2.          4.55045259 -0.21077196],34
314,[-2.          4.49884663 -0.22844765],32
315,[-2.          4.54868829 -0.11897626],32
316,[-3.          6.64544057 -0.15776937],69
317,[-1.          2.29931804 -0.12099178],13
318,[-2.          4.44753629 -0.14193659],36
319,[-2.          4.51491473  0.01507967],34
320,[-3.          6.64515015  0.12299048],75
321,[-2.          4.69326406 -0.35231892],34
322,[-3.          6.50012337 -0.04440745],77
323,[-3.          6.43096674 -0.06138755],65
324,[-3.          6.58314951  0.05864291],65
325,[-3.          6.88711801 -0.23323189],75
326,[-3.          6.67207869 -0.25875763],73
327,[-3.          6.62547217  0.03289766],79
328,[-1.          2.18003684 -0.02014165],11
329,[-2.          4.56544753 -0.12125926],34
330,[-4.          8.7818875  -0.28738113],130
331,[-3.          6.63518761  0.15917405],77
332,[-3.          6.47473425 -0.01109256],63
333,[-3.          6.57632061 -0.165576  ],85
334,[-3.          6.92274468 -0.31538627],77
335,[-2.          4.57785451 -0.23023078],26
336,[-3.          6.56077792 -0.0241686 ],75
337,[-2.          4.42356532  0.05127509],32
338,[-2.          4.50180723 -0.13457178],30
339,[-2.          4.50466921  0.02283991],38
340,[-2.          4.42876049 -0.00974109],32
341,[-3.          6.49560968  0.12276212],73
342,[-3.          6.62383872  0.05339128],77
343,[-3.          6.7385298  -0.29598496],73
344,[-3.          6.59577887  0.15380371],65
345,[-4.          8.99995577 -0.39208968],140
346,[-4.          8.73211508  0.28632744],118
347,[-2.          4.55397865 -0.15573546],38
348,[-3.          6.55880691  0.01548913],73
349,[-2.          4.41119784 -0.0083517 ],30
350,[-2.          4.62159238 -0.20194462],34
351,[-3.          6.90091819 -0.36359133],79
352,[-1.          2.27953246 -0.10279181],9
353,[-3.          6.85111659 -0.1090775 ],75
354,[-3.          6.50225068  0.11528488],79
355,[-1.          2.23090088 -0.06440581],5
356,[-3.          6.6531282   0.06134633],77
357,[-2.          4.39393983  0.15614594],40
358,[-3.          6.50924159 -0.01912755],75
359,[-4.          8.72875622 -0.16949772],126
360,[-3.          6.7640922  -0.10386365],75
361,[-3.          6.89769885 -0.36371214],81
362,[-2.          4.37231391  0.06460084],34
363,[-3.          6.59737061 -0.10958114],65
364,[-2.          4.67121372 -0.34996669],32
365,[-3.          6.6995606   0.07948203],69
366,[-3.          6.60837819 -0.11501324],63
367,[-2.          4.48582758 -0.15586157],24
368,[-3.          6.6090764   0.19767316],69
369,[-3.          6.74119049 -0.01157437],69
370,[-3.          6.54006762 -0.12772838],75
371,[-3.          6.55391783 -0.14414678],81
372,[-4.          8.81061515  0.32588093],116
373,[-2.          4.52073859 -0.08662542],34
374,[-2.          4.36526422 -0.12541849],36
375,[-3.          6.5771901  -0.17907516],69
376,[-3.          6.53846396 -0.07382762],77
377,[-2.          4.40454193  0.1934296 ],28
378,[-2.          4.39153691 -0.00758522],34
379,[-3.          6.57230504  0.02220754],69
380,[-3.          6.74055146 -0.10923119],73
381,[-3.          6.67354072 -0.24806338],75
382,[-2.          4.32727279  0.07060712],28
383,[-3.          6.54294787 -0.07910077],49
384,[-3.          6.68644285 -0.20687567],65
385,[-3.          6.68803621 -0.03869733],79
386,[-3.          6.95207097 -0.49423581],71
387,[-2.          4.39610232 -0.11960075],40
388,[-2.          4.42570687 -0.08813919],34
389,[-2.          4.34817649  0.02609779],42
390,[-3.          6.68022923 -0.26549898],75
391,[-4.          8.8119127  -0.23853571],126
392,[-3.          6.73417683 -0.05091701],73
393,[-4.          8.55264576 -0.10265107],116
394,[-2.00000000e+00  4.42624985e+00 -1.18711854e-04],30
395,[-2.          4.59000265 -0.16011477],32
396,[-3.          6.52248175 -0.13679102],79
397,[-3.          6.58775246 -0.18933888],57
398,[-3.          6.84114451 -0.2310723 ],67
399,[-3.          6.93736997 -0.42937164],75
400,[-2.          4.52700746 -0.02660894],36
401,[-3.          6.65672967 -0.07312106],83
402,[-3.          6.39368632 -0.08483185],61
403,[-3.          6.60239286 -0.11362373],71
404,[-2.          4.61323976 -0.21784896],30
405,[-4.          9.17610199 -0.51773549],134
406,[-3.          6.59325396 -0.1709426 ],81
407,[-2.          4.36558903 -0.00449286],30
408,[-3.          6.69951815 -0.02551062],67
409,[-3.          6.67371586 -0.07859908],83
410,[-3.          6.60145824 -0.02598559],67
411,[-3.          6.80423861 -0.01196144],77
412,[-3.          6.45930094 -0.09759564],65
413,[-2.          4.59042964 -0.15108999],36
414,[-2.          4.53208045 -0.11763267],42
415,[-3.          6.68279989  0.0117365 ],57
416,[-2.          4.37858873  0.07685266],36
417,[-3.          6.72269201 -0.0980106 ],91
418,[-3.00000000e+00  6.42591695e+00  4.32790276e-03],65
419,[-2.          4.41468913 -0.16067419],34
420,[-3.          6.50401407 -0.01858589],69
421,[-2.          4.47611701  0.0233863 ],36
422,[-2.          4.71738574 -0.36272714],38
423,[-3.          6.6422629  -0.18405183],71
424,[-3.          6.44699009 -0.05910914],71
425,[-3.          6.70508781 -0.28811652],77
426,[-3.          6.73718045 -0.16156679],71
427,[-3.          6.84423551 -0.26313806],75
428,[-1.          2.17805843  0.04079433],15
429,[-3.          6.54169505 -0.01436948],77
430,[-3.          6.4404776  -0.06518878],67
431,[-3.          6.60001243 -0.05399397],81
432,[-3.          6.64244432 -0.10522428],71
433,[-3.          6.4642292  -0.01548722],61
434,[-3.00000000e+00  6.66610771e+00  4.72186087e-03],71
435,[-4.          8.67095972  0.17922664],120
436,[-2.          4.36958665  0.05709526],32
437,[-2.          4.37178827  0.07664114],32
438,[-3.          6.9705044  -0.43465187],71
439,[-2.          4.43125177  0.15804507],26
440,[-4.          8.81008173  0.14422342],130
441,[-4.          8.58970937 -0.12577074],120
442,[-2.          4.36477589 -0.02609267],46
443,[-3.          6.7344057  -0.08626006],77
444,[-2.          4.41751088 -0.07595627],38
445,[-4.          8.82032463 -0.26723803],130
446,[-2.          4.55398504 -0.24999338],28
447,[-2.          4.52194991 -0.17229463],34
448,[-3.00000000e+00  6.57852879e+00  3.99227115e-03],73
449,[-3.          6.55970529  0.23103371],69
450,[-3.          6.57999664  0.24338646],73
451,[-3.          6.50983182  0.11569691],79
452,[-3.          6.52139875  0.06732537],71
453,[-3.          6.91451951 -0.45740822],79
454,[-3.          6.48411376 -0.06300373],69
455,[-2.          4.28805987 -0.07195269],32
456,[-3.          6.62699967 -0.25809728],77
457,[-3.         6.5664499 -0.1938946],75
458,[-3.          6.64772015  0.07736185],67
459,[-3.          6.61246631  0.1290136 ],71
460,[-3.          6.67654749 -0.17901597],71
461,[-2.          4.40784192 -0.0079031 ],36
462,[-3.          6.52593272  0.04202661],69
463,[-4.00000000e+00  8.68855231e+00  6.73270466e-03],126
464,[-3.          6.51205983 -0.04646764],69
465,[-3.          6.62676188 -0.17673166],73
466,[-3.          6.555311   -0.03338437],63
467,[-3.          6.54803972 -0.13255887],73
468,[-4.          8.54531934 -0.0434075 ],134
469,[-2.          4.45221144 -0.04795267],32
470,[-4.          8.52988249 -0.10954999],120
471,[-3.00000000e+00  6.46875570e+00 -4.17871713e-03],77
472,[-3.          6.4932734  -0.13673088],67
473,[-2.          4.34410275  0.06878976],30
474,[-4.          8.86487309 -0.28997435],134
475,[-2.          4.49916219 -0.0666102 ],38
476,[-3.          6.56349576  0.06433286],65
477,[-2.          4.52136699 -0.17216529],32
478,[-3.          6.60352552 -0.18556009],73
479,[-2.          4.53075359 -0.0728854 ],40
480,[-2.          4.38471369  0.13101687],32
481,[-2.          4.3688438   0.11394542],36
482,[-2.          4.48102493 -0.00796258],40
483,[-3.          6.81573008 -0.24077446],73
484,[-3.          6.67106338 -0.12462846],73
485,[-2.          4.6721615  -0.31155087],38
486,[-2.          4.50885945  0.00505674],30
487,[-2.          4.48427262  0.00962544],36
488,[-3.          6.57184652 -0.20433536],77
489,[-2.          4.44774668 -0.06493713],30
490,[-4.          8.93006831 -0.05271745],124
491,[-3.          6.59031985  0.01050018],63
492,[-3.         6.4780715 -0.1008657],69
493,[-4.          8.61708605 -0.10024301],118
494,[-1.          2.20550254  0.09389914],11
495,[-2.          4.40230946  0.11798818],26
496,[-2.          4.38094294  0.03407302],34
497,[-3.          6.82978378 -0.3488218 ],75
498,[-3.          6.6741593  -0.24783618],69
499,[-2.          4.51465328  0.0129904 ],26
500,[-2.          4.5678259  -0.23439992],36
501,[-2.          4.58799959 -0.21205103],40
502,[-2.          4.4154708  -0.16322381],28
503,[-3.          6.44593406 -0.01683186],71
504,[-2.          4.34412156  0.04324741],34
505,[-3.          6.66340046 -0.06898962],65
506,[-2.          4.44468085  0.12117649],28
507,[-3.          6.5608116   0.00726918],75
508,[-3.          6.70092138 -0.24333986],77
509,[-3.          6.72415336 -0.01993069],71
510,[-3.          6.72901353 -0.33018138],75
511,[-2.          4.32890444 -0.08570632],44
512,[-3.          6.50269817 -0.07559653],69
513,[-3.          6.53891828 -0.14172302],57
514,[-2.          4.55969801 -0.13724138],24
515,[-2.          4.46957346 -0.19531144],36
516,[-4.          8.84847064 -0.06689396],126
517,[-3.00000000e+00  6.58278434e+00  3.25136270e-03],65
518,[-3.          6.60889739  0.07042456],75
519,[-2.         4.4931563 -0.1695079],30
520,[-3.          6.59043311 -0.10110358],73
521,[-2.          4.40695149 -0.06308836],24
522,[-4.          8.64263925 -0.11714626],110
523,[-3.          6.84087765 -0.1924387 ],69
524,[-4.00000000e+00  8.62923378e+00  6.00725247e-03],120
525,[-2.          4.46902438 -0.11033801],36
526,[-3.          6.50037757 -0.05781573],53
527,[-3.          6.46927641 -0.09920816],65
528,[-2.          4.53701799 -0.08483432],38
529,[-2.          4.39702475  0.05086505],30
530,[-2.          4.502923    0.01733761],26
531,[-2.          4.43503671  0.14251474],36
532,[-3.00000000e+00  6.43653397e+00  6.92121018e-05],73
533,[-3.          6.48036253  0.10230995],63
534,[-1.          2.24497249 -0.01515064],7
535,[-1.          2.25623473 -0.09434259],9
536,[-2.          4.33968825  0.06221315],32
537,[-3.          6.69726427 -0.17447761],75
538,[-2.          4.54746352 -0.17573977],36
539,[-2.          4.56672199 -0.28048393],36
540,[-3.          6.56575183  0.07290588],67
541,[-3.          6.62466446 -0.16179335],79
542,[-2.          4.30400476 -0.04703436],26
543,[-3.          6.54793025  0.05141019],65
544,[-3.          6.61242739 -0.21645013],71
545,[-3.          6.58070604  0.0408769 ],73
546,[-2.          4.51191589 -0.15218959],38
547,[-3.          6.67334153 -0.15034003],73
548,[-2.          4.45769186 -0.1838265 ],40
549,[-1.          2.21946858  0.04161612],9
550,[-2.          4.3693368  -0.07948806],40
551,[-3.          6.8480893  -0.10847411],85
552,[-3.          6.44469963 -0.0905995 ],73
553,[-2.          4.34328675 -0.04937293],32
554,[-1.          2.18964261  0.08501945],11
555,[-4.00000000e+00  8.59350815e+00 -5.01892905e-03],132
556,[-3.          6.53854705 -0.19229877],87
557,[-2.          4.5408566  -0.24822209],30
558,[-3.          6.78423051 -0.3402289 ],71
559,[-3.          6.49747716  0.02568635],65
560,[-3.          6.73849615 -0.00943015],67
561,[-4.          8.69930504  0.00938517],132
562,[-2.          4.51432915 -0.196525  ],30
563,[-3.          6.61251716 -0.12400316],71
564,[-2.          4.59989808 -0.22844652],34
565,[-3.          6.66594285 -0.17918962],75
566,[-1.          2.26228728 -0.08385835],11
567,[-3.          6.61018359 -0.09247247],75
568,[-3.          6.6813116  -0.17265335],67
569,[-2.          4.44199881 -0.0548879 ],24
570,[-3.          6.59539203  0.25704788],71
571,[-2.          4.51591881 -0.18716068],30
572,[-3.          6.52947551  0.16155141],73
573,[-1.          2.2188734  -0.06653356],7
574,[-3.          6.650015    0.20365727],67
575,[-4.          8.65273762 -0.07374185],130
576,[-3.          6.72138061 -0.21576504],73
577,[-3.          6.53233747  0.14064136],69
578,[-3.          6.85412434 -0.39769748],75
579,[-2.          4.34726374  0.05255808],32
580,[-3.          6.77615262 -0.26888075],87
581,[-3.          6.8128262  -0.34429121],81
582,[-4.         8.6219885 -0.1799779],138
583,[-2.00000000e+00  4.47498276e+00 -2.92056601e-04],36
584,[-3.          6.48433978  0.09091457],67
585,[-3.          6.5441387   0.02821727],83
586,[-3.          6.4930784  -0.04219646],65
587,[-3.          6.97590712 -0.34301649],79
588,[-4.          8.88483452 -0.15524508],126
589,[-3.          6.41787171 -0.01083908],79
590,[-2.          4.45461808  0.11694207],36
591,[-2.          4.58662928 -0.13433118],32
592,[-2.          4.54502174 -0.14863152],34
593,[-3.          6.72957496 -0.00955302],69
594,[-4.          9.15003726 -0.57814792],142
595,[-3.          6.5555983  -0.04443402],67
596,[-4.          8.88011029 -0.18242131],128
597,[-2.          4.49054897 -0.01954228],40
598,[-2.          4.53342937 -0.19243769],28
599,[-3.          6.89542342 -0.27474662],75
600,[-1.          2.21221211 -0.02438003],9
601,[-2.          4.41192861 -0.1439583 ],26
602,[-2.          4.36221409 -0.09935336],22
603,[-3.          6.61486563 -0.06329378],67
604,[-3.          6.55425008  0.10334825],75
605,[-3.          6.5814312   0.07240856],71
606,[-3.          6.67574491  0.21560991],65
607,[-3.          6.56614601  0.15236105],69
608,[-4.          9.14335334 -0.30430111],132
609,[-3.          6.63048385  0.09209517],69
610,[-3.          6.51280244 -0.05479231],83
611,[-3.          6.79606307 -0.3172669 ],85
612,[-3.          6.45429179 -0.05995644],63
613,[-2.          4.3216235   0.03710716],24
614,[-2.          4.35877953 -0.02371948],34
615,[-4.          8.69268135 -0.02685324],126
616,[-4.00000000e+00  8.77667825e+00 -1.04523076e-03],142
617,[-3.          6.53334525 -0.08238559],75
618,[-2.          4.44758684  0.03869376],30
619,[-3.          6.63418659  0.29421873],63
620,[-3.          6.59698226  0.08930324],65
621,[-2.          4.39734761 -0.02815984],32
622,[-2.          4.40759606 -0.14430098],28
623,[-1.          2.20884569  0.04105807],11
624,[-2.          4.50736396 -0.10323791],40
625,[-3.          6.66399844 -0.09393216],77
626,[-2.          4.49042408  0.06439065],34
627,[-2.          4.55515499 -0.09224252],36
628,[-4.00000000e+00  8.71458770e+00 -8.15155458e-03],130
629,[-2.         4.3828393 -0.0345876],36
630,[-3.          6.45790587 -0.09086477],69
631,[-3.          6.63969394 -0.0631775 ],77
632,[-3.00000000e+00  6.68284574e+00  1.43820250e-03],71
633,[-3.          6.71229908 -0.01863643],67
634,[-3.          6.55895608  0.08675029],67
635,[-3.          6.71102959 -0.03212977],79
636,[-2.          4.45105776  0.07180983],30
637,[-2.          4.50587831 -0.18167995],32
638,[-2.          4.49425427 -0.09644298],36
639,[-2.          4.62211499 -0.1742179 ],32
640,[-2.          4.46868313  0.11700521],26
641,[-2.          4.31880341  0.04431026],30
642,[-2.          4.49368718 -0.05623673],34
643,[-2.          4.56083816 -0.11351203],26
644,[-4.         8.7506236  0.1001406],118
645,[-3.          6.49914681 -0.14107391],75
646,[-3.          6.84171489 -0.15226015],71
647,[-3.          6.49942214  0.08988539],65
648,[-4.          8.75362978  0.01125996],116
649,[-3.         6.6846543  0.1299577],71
650,[-4.          8.61755572 -0.05216488],126
651,[-2.          4.61194421 -0.21025239],28
652,[-2.          4.44292992 -0.01756104],26
653,[-3.          6.50247814 -0.12213478],77
654,[-3.          6.70618079 -0.00908103],75
655,[-4.          8.84442229 -0.255495  ],122
656,[-2.          4.47554736 -0.04865978],38
657,[-4.          8.84477952 -0.27835961],132
658,[-3.          6.51315304  0.07419374],75
659,[-2.00000000e+00  4.41001397e+00  1.31002892e-03],38
660,[-2.          4.32275934 -0.07156702],34
661,[-1.          2.18772586  0.01128543],11
662,[-2.          4.51565683  0.03034187],30
663,[-3.          6.63373757  0.01352024],71
664,[-3.          6.64872378  0.12082325],71
665,[-2.          4.37958938 -0.1038107 ],38
666,[-3.          6.6451748  -0.21725252],71
667,[-2.          4.49911766 -0.22363099],32
668,[-3.          6.52754443 -0.0161189 ],81
669,[-3.          6.69063267 -0.26194229],69
670,[-1.          2.20958448  0.00469777],11
671,[-3.          6.83913497 -0.2072809 ],79
672,[-2.          4.48887603 -0.16361466],34
673,[-3.          6.53900698 -0.1471982 ],75
674,[-3.          6.49585236 -0.09648695],69
675,[-3.          6.79246875 -0.13811557],77
676,[-3.          6.49813095  0.01941477],65
677,[-4.          8.67903055 -0.19728438],120
678,[-3.          6.53758515  0.01223577],73
679,[-3.          6.55546037  0.03221884],71
680,[-2.          4.65895181 -0.3247493 ],48
681,[-3.          6.73276651 -0.22720202],75
682,[-2.          4.55227723 -0.13196168],34
683,[-3.          6.74066891  0.0790782 ],73
684,[-2.00000000e+00  4.49052587e+00 -1.34809446e-03],32
685,[-2.          4.30508786 -0.00509542],30
686,[-3.          6.5093287  -0.09335174],65
687,[-4.          8.72422017 -0.24547982],136
688,[-3.          6.73727687 -0.1586689 ],67
689,[-3.          6.68345108 -0.2248354 ],79
690,[-3.          6.55808067 -0.08091584],63
691,[-2.          4.60976528 -0.2564897 ],32
692,[-2.          4.58478348 -0.16154957],32
693,[-3.          6.75764326 -0.21307417],77
694,[-2.          4.28898826 -0.04229271],30
695,[-3.          6.61911442  0.08542141],71
696,[-3.          6.61148586  0.09238887],69
697,[-2.          4.36339789  0.13539542],26
698,[-3.          6.52134284  0.09920887],71
699,[-2.          4.34447037  0.10201332],32
700,[-3.          6.68200841  0.05897603],71
701,[-3.          6.52419873 -0.05418476],73
702,[-3.          6.40071669 -0.08745635],57
703,[-3.          6.72663419  0.0618345 ],75
704,[-3.          6.40363214 -0.04477344],67
705,[-4.          8.58508215  0.03932847],124
706,[-3.          6.54621286 -0.09547187],57
707,[-1.          2.34195407 -0.16717667],5
708,[-3.          6.53631832 -0.10774486],75
709,[-2.          4.39891752 -0.05238439],36
710,[-3.          6.47040814 -0.03697798],79
711,[-4.          8.65036504 -0.04039048],130
712,[-3.          6.65013685  0.25141655],65
713,[-4.          8.96873709 -0.36359401],128
714,[-4.          8.79342849 -0.0803043 ],128
715,[-2.          4.57158125 -0.19198338],36
716,[-3.          6.89934771 -0.39871825],65
717,[-2.          4.58580042 -0.29243126],32
718,[-3.          6.53509603  0.13567427],85
719,[-2.          4.34867137  0.09065025],38
720,[-3.          6.64547898 -0.03805084],65
721,[-4.          9.03378491 -0.33758909],118
722,[-1.          2.14447271 -0.02914634],9
723,[-2.          4.49027033 -0.16794189],28
724,[-3.          6.46167048  0.07081069],79
725,[-3.          6.8625565  -0.24045196],63
726,[-3.          6.84157425 -0.24746207],75
727,[-3.          6.7760652  -0.16021368],69
728,[-3.          6.55982696 -0.09773324],71
729,[-2.          4.55742259 -0.08501003],34
730,[-2.          4.51366552 -0.02916013],30
731,[-2.          4.36767443 -0.1089567 ],28
732,[-1.          2.18347154  0.02850763],11
733,[-3.          6.45483194 -0.08639214],67
734,[-3.          6.64458591  0.0730441 ],71
735,[-3.          6.47692923 -0.03392598],69
736,[-3.          6.4460944  -0.00772875],77
737,[-2.          4.47269591 -0.03537933],32
738,[-4.00000000e+00  8.72197807e+00 -6.52687310e-03],130
739,[-3.         6.65145    0.0239895],61
740,[-4.          8.96617804 -0.36895825],142
741,[-2.          4.65393618 -0.28668411],36
742,[-4.          8.73606362 -0.08935386],124
743,[-3.          6.75705494  0.05774292],87
744,[-3.          6.71836709 -0.03571042],75
745,[-4.          8.57908613 -0.08754794],120
746,[-2.          4.35597788  0.10949764],28
747,[-3.          6.51763963 -0.14875316],65
748,[-2.          4.43097332  0.06973581],36
749,[-3.          6.6276404   0.04310076],69
750,[-2.          4.43874369 -0.1076017 ],40
751,[-3.          6.45083418  0.02693024],69
752,[-3.          6.51579009 -0.01946708],69
753,[-3.          6.67952483 -0.08257633],75
754,[-4.          8.64637384 -0.10616974],110
755,[-2.          4.46327428 -0.12483898],36
756,[-3.          6.61419938 -0.1557585 ],69
757,[-3.          6.69309269 -0.15130773],75
758,[-3.          6.65195309 -0.26586832],69
759,[-3.          6.75000598 -0.26115585],77
760,[-3.          6.69183618  0.14610308],77
761,[-3.          6.7210098   0.05868108],75
762,[-3.          6.52477992  0.07903727],73
763,[-3.          6.58732245  0.02596253],65
764,[-3.          6.51263511 -0.04621724],67
765,[-4.          8.79312958 -0.11563939],140
766,[-3.          6.56404994  0.10151005],75
767,[-4.          8.71593054 -0.19207152],128
768,[-3.          6.56831225  0.17789332],77
769,[-3.          6.57847752 -0.16892398],69
770,[-3.          6.92873565 -0.25774105],89
771,[-4.          8.6174027  -0.05622253],122
772,[-3.          6.56602041  0.17013446],69
773,[-3.00000000e+00  6.44224243e+00  7.70585484e-04],59
774,[-2.          4.41889145  0.08547984],34
775,[-3.          6.75450343  0.06732764],63
776,[-2.          4.66112485 -0.31947202],34
777,[-3.          6.577657    0.07233987],79
778,[-3.          6.52444789  0.14366955],75
779,[-3.          6.4894933  -0.02965237],71
780,[-3.          6.56549218 -0.14029622],63
781,[-3.          7.06444204 -0.52255387],79
782,[-3.          6.66488033 -0.08424651],63
783,[-3.          6.85678603 -0.35361326],73
784,[-2.          4.63581423 -0.21326556],38
785,[-3.00000000e+00  6.46010633e+00 -4.23415492e-03],69
786,[-3.          6.54632729 -0.16540404],71
787,[-3.          6.80088667 -0.04232202],81
788,[-3.          6.73353497 -0.13976986],69
789,[-3.          6.63883308 -0.14008603],75
790,[-3.          6.5948361  -0.09534696],61
791,[-3.          6.60623277  0.03666676],77
792,[-4.          8.68081683 -0.10474283],126
793,[-2.          4.42123183  0.02153594],40
794,[-3.          6.78862838 -0.09085078],73
795,[-2.          4.57579231 -0.08862835],30
796,[-3.          6.67777109 -0.13502219],79
797,[-2.          4.32894332 -0.01150684],30
798,[-3.          6.66512985 -0.23878864],73
799,[-2.          4.60745692 -0.19318111],34
800,[-2.          4.50619945  0.01824919],30
801,[-3.          6.76201005 -0.10491873],61
802,[-2.          4.38388033  0.09257821],26
803,[-2.          4.38733615 -0.08517132],30
804,[-2.          4.56231195 -0.1565576 ],30
805,[-4.          8.5678759  -0.04983114],114
806,[-4.          8.725177   -0.24541999],120
807,[-2.          4.39952889 -0.06655294],34
808,[-3.          6.66367897  0.05619954],63
809,[-2.          4.40398442 -0.13313903],24
810,[-3.          6.76266075 -0.2575417 ],75
811,[-3.          6.65400085  0.15425622],77
812,[-3.          6.77016994 -0.06880007],81
813,[-4.          8.66026072 -0.21022459],120
814,[-2.          4.33950412 -0.02374765],30
815,[-3.00000000e+00  6.67591121e+00  6.48702240e-03],67
816,[-3.          6.54514715 -0.08580452],73
817,[-3.          6.84180113 -0.2434154 ],75
818,[-2.          4.41934888  0.17958582],36
819,[-2.          4.41986923 -0.06666089],28
820,[-4.          9.20146331 -0.38687311],138
821,[-3.          7.02798595 -0.53426774],79
822,[-2.          4.62718581 -0.21691729],38
823,[-3.          6.63790781 -0.20206076],71
824,[-3.          6.65284969  0.00890719],69
825,[-3.          6.60868819 -0.12606926],63
826,[-3.          6.49962282 -0.0513597 ],59
827,[-4.          8.60909457  0.03765897],122
828,[-4.          8.66071386  0.05073384],122
829,[-3.          6.7660679  -0.20020919],69
830,[-2.          4.32361043  0.06762268],30
831,[-2.          4.36788355 -0.03287587],32
832,[-3.          6.52479622 -0.08067864],67
833,[-1.          2.32600988 -0.11831856],5
834,[-2.          4.47133976 -0.1291091 ],30
835,[-2.          4.37080687  0.15257845],36
836,[-3.          6.67954287 -0.14879309],77
837,[-3.          6.73409294 -0.09009564],69
838,[-3.          6.66119706 -0.14199103],73
839,[-3.          6.77498622 -0.06064683],69
840,[-3.          6.57638039 -0.14338416],67
841,[-3.          6.66357666  0.07617523],81
842,[-3.          6.70584248  0.08366818],67
843,[-3.          6.61149414  0.26554406],75
844,[-3.          6.44667896 -0.09202678],69
845,[-3.          6.60902359 -0.07874967],73
846,[-3.          6.90714233 -0.31860908],89
847,[-2.          4.41267284 -0.12760789],34
848,[-4.          9.092486   -0.26546995],140
849,[-3.          6.70623874 -0.12833885],73
850,[-4.          8.83653998 -0.05824446],134
851,[-3.          6.41518549 -0.06584812],65
852,[-2.          4.49865524 -0.04041869],40
853,[-3.          6.85509159 -0.39249877],79
854,[-3.          6.68624525 -0.02094799],79
855,[-3.          6.7427122  -0.29542154],75
856,[-2.          4.57151101 -0.17702082],38
857,[-2.          4.68366318 -0.3286552 ],46
858,[-2.          4.35056075 -0.06287334],32
859,[-2.          4.48989808 -0.17890757],32
860,[-3.          6.83065552 -0.40074348],73
861,[-3.          6.63732775 -0.16848627],63
862,[-2.          4.49394436 -0.06967666],26
863,[-2.          4.41306552  0.05708144],32
864,[-3.          6.61706365  0.00834329],75
865,[-3.          6.55473799  0.09619077],73
866,[-1.          2.1929746   0.04689137],5
867,[-3.          6.86578743 -0.24761144],77
868,[-3.00000000e+00  6.47489593e+00  4.84327699e-03],69
869,[-3.          6.73678785 -0.20617723],75
870,[-3.          7.00362258 -0.46594409],91
871,[-4.          9.09201324 -0.30287393],134
872,[-3.          6.61848379  0.1207879 ],67
873,[-2.          4.41519894  0.09535041],36
874,[-3.          6.48573255 -0.13257514],81
875,[-3.          6.84474131 -0.30753368],79
876,[-1.          2.21952135 -0.08281926],9
877,[-2.          4.60334038 -0.20452611],34
878,[-3.          6.57715329 -0.0772071 ],75
879,[-3.          6.89713613 -0.21903612],85
880,[-2.          4.58494684 -0.12741479],32
881,[-4.          9.02338593 -0.13913607],138
882,[-3.          6.6331726  -0.13063878],77
883,[-3.          6.69061662 -0.27691206],77
884,[-2.          4.47475879 -0.06781722],40
885,[-3.          6.42052503 -0.09732021],67
886,[-2.          4.34977626  0.06231156],26
887,[-2.          4.35770155  0.0501926 ],36
888,[-2.          4.68383771 -0.29692352],28
889,[-4.          8.79303334 -0.13465139],128
890,[-3.          7.04406893 -0.51328644],87
891,[-3.          6.4153305  -0.06982652],63
892,[-3.          6.51956611 -0.07630249],81
893,[-3.          6.52091119  0.03846174],69
894,[-3.          6.63636625  0.05179587],73
895,[-2.          4.51407288 -0.03549893],30
896,[-4.          8.98775931 -0.2613117 ],132
897,[-2.          4.35429204  0.02957868],26
898,[-4.          8.96145966 -0.15674657],134
899,[-2.          4.31598599  0.04415429],30
900,[-3.          6.84180213 -0.40052539],75
901,[-3.          6.90929831 -0.3654202 ],79
902,[-2.          4.53324444 -0.15243711],32
903,[-4.          8.98643516 -0.42022526],132
904,[-3.          6.45285916 -0.09688559],67
905,[-1.          2.22619175  0.01918561],9
906,[-1.          2.29869351 -0.1006419 ],5
907,[-3.          6.61852805 -0.13122288],65
908,[-1.          2.29576419 -0.14815387],11
909,[-2.          4.46813384 -0.13352457],34
910,[-3.          6.51782069  0.09027075],73
911,[-2.          4.47237112 -0.07233359],36
912,[-3.          6.86749439 -0.38439438],79
913,[-2.          4.3225959   0.02687017],28
914,[-2.          4.46132771  0.07245215],38
915,[-3.          6.97598584 -0.37502133],77
916,[-3.          6.38559393 -0.07371057],65
917,[-3.          6.59912128 -0.15775393],77
918,[-2.          4.53987808 -0.08370618],28
919,[-4.          9.13849893 -0.32716662],144
920,[-3.          6.62301581 -0.16979407],73
921,[-3.          6.72495548 -0.17704843],83
922,[-2.          4.51101724 -0.0583537 ],32
923,[-3.          6.52160268  0.06089471],67
924,[-3.          6.63082703 -0.10495961],69
925,[-2.          4.51044619 -0.09445246],38
926,[-3.          6.46303034  0.02619449],57
927,[-2.          4.35240475  0.03579244],32
928,[-2.          4.62198316 -0.22534888],36
929,[-3.          6.5415758   0.17385682],81
930,[-3.          6.44673678 -0.06283858],71
931,[-3.          6.74710838  0.05886886],65
932,[-3.          6.66236955  0.05781976],77
933,[-2.          4.33614483 -0.03169336],26
934,[-4.          8.87014388 -0.19961618],120
935,[-3.          6.48473405  0.02175319],69
936,[-3.          6.52646632 -0.10269087],71
937,[-3.          6.94782043 -0.48065462],77
938,[-2.          4.28260134 -0.0575597 ],30
939,[-1.          2.17023364  0.02922219],9
940,[-2.          4.60260001 -0.24405933],32
941,[-3.          6.59052079  0.13486968],75
942,[-2.          4.49799847 -0.03727901],36
943,[-2.          4.69567243 -0.36522112],38
944,[-3.          6.79235412  0.01063004],71
945,[-3.          6.67778999 -0.17965018],73
946,[-2.          4.5020648  -0.06889059],30
947,[-2.          4.44233934 -0.18118788],34
948,[-2.          4.42294684 -0.11367336],26
949,[-3.          6.55740279  0.20744627],71
950,[-3.          6.40102669 -0.03930329],63
951,[-2.          4.55934356 -0.10190889],34
952,[-1.          2.30953762 -0.13499634],9
953,[-2.          4.4904364  -0.13178934],34
954,[-2.          4.35628353 -0.03617714],32
955,[-3.          6.44601207 -0.11203778],75
956,[-3.00000000e+00  6.48593317e+00  4.05000452e-03],67
957,[-3.          6.66426928  0.07504288],57
958,[-2.          4.40388325  0.08217069],26
959,[-1.          2.20534641  0.0279512 ],9
960,[-4.          8.91195918 -0.35047907],130
961,[-3.          6.56065502 -0.01722037],65
962,[-2.          4.55673991 -0.10378334],36
963,[-2.          4.41498096  0.16144644],30
964,[-3.          6.66188462 -0.01563746],73
965,[-2.          4.35972473 -0.04225644],20
966,[-2.          4.26624123 -0.02735009],28
967,[-3.          6.54125339 -0.01509727],73
968,[-4.          8.82658242  0.03207378],132
969,[-2.          4.35026549 -0.07840779],30
970,[-4.          9.05699845 -0.35077125],132
971,[-1.          2.22981123 -0.0175297 ],9
972,[-3.          6.49479852  0.05822474],73
973,[-3.          6.81579477 -0.06236269],85
974,[-3.          6.6037303  -0.17128551],67
975,[-4.          8.61529483 -0.17636905],132
976,[-2.          4.41901892  0.18194566],32
977,[-3.          6.55359332  0.14743838],71
978,[-2.          4.63665918 -0.24671915],34
979,[-2.          4.54753747 -0.04091395],38
980,[-1.          2.21740941  0.03483524],7
981,[-3.          6.57946325  0.06144942],71
982,[-3.          6.64343718  0.13899862],67
983,[-4.          8.67437976 -0.11426697],116
984,[-2.          4.54097295 -0.15202143],38
985,[-3.          6.57402053 -0.10337598],63
986,[-2.          4.45883845  0.02998985],36
987,[-1.          2.17315446 -0.02843444],9
988,[-3.          6.69340018  0.10528218],71
989,[-2.          4.4272116   0.19237921],38
990,[-2.          4.61039291 -0.26768604],26
991,[-3.          6.55424129  0.20222132],73
992,[-2.          4.42943744  0.18753585],42
993,[-3.          6.84232718 -0.09690992],87
994,[-3.          6.67715142 -0.04393088],75
995,[-3.          6.61055275  0.2767717 ],65
996,[-3.          6.43885283 -0.09696465],55
997,[-3.          6.53360832 -0.11910068],63
998,[-3.          6.73737316 -0.33077657],65
999,[-1.          2.27231828 -0.05778553],11
