,weights,success_tries
0,[  7.         -20.18600921 -13.21346771],799
1,[  4.         -11.61645834  -7.74033439],278
2,[  5.         -14.42766957  -9.57041657],419
3,[  6.         -17.27635855 -11.32476582],572
4,[  4.         -11.52018866  -7.64451568],272
5,[  6.         -17.2923307  -11.39097588],592
6,[  5.         -14.55529019  -9.63275095],413
7,[ 2.         -5.75928845 -3.76108283],76
8,[  6.         -17.53023798 -11.7117823 ],586
9,[  5.         -14.42416964  -9.46839219],447
10,[  8.         -23.44281839 -15.69083125],1082
11,[  6.         -17.23554134 -11.36720182],608
12,[  6.         -17.33842049 -11.38798338],618
13,[  5.         -14.56895297  -9.72482938],461
14,[  7.         -20.35280203 -13.47032258],847
15,[  4.         -11.68614023  -7.82745238],286
16,[  5.         -14.43955556  -9.5100059 ],439
17,[  6.         -17.3547572  -11.44252861],624
18,[  4.        -11.4969219  -7.5606981],260
19,[ 2.         -5.81029619 -3.861898  ],72
20,[  6.         -17.32467187 -11.4593459 ],600
21,[  5.         -14.42390099  -9.52441697],401
22,[  7.         -20.19149832 -13.35429988],805
23,[ 2.         -5.75031993 -3.77710939],70
24,[  5.         -14.42306271  -9.46702768],407
25,[  5.         -14.48536979  -9.51001474],419
26,[  5.         -14.39409067  -9.43680533],419
27,[  8.         -22.99494265 -15.08996659],1008
28,[  6.         -17.34042131 -11.35747595],612
29,[  4.         -11.54644845  -7.58003792],278
30,[  5.         -14.49989313  -9.64408316],417
31,[  4.         -11.56049226  -7.6107935 ],302
32,[  7.         -20.14444946 -13.19405787],781
33,[  7.         -20.16470357 -13.14091267],783
34,[  4.         -11.62107703  -7.74108262],264
35,[  5.         -14.52172051  -9.60433614],433
36,[  8.         -23.05206721 -15.05346619],1066
37,[  5.         -14.39577389  -9.48967411],411
38,[  5.         -14.50603767  -9.64752457],403
39,[  5.         -14.57295383  -9.71617697],417
40,[  5.         -14.49962542  -9.557507  ],417
41,[  6.         -17.3266185  -11.36773808],606
42,[  6.         -17.29110255 -11.40152769],602
43,[  4.         -11.63569689  -7.72382973],270
44,[  6.         -17.380775   -11.58933864],630
45,[ 3.         -8.70461793 -5.73444508],177
46,[  5.         -14.58393172  -9.70748511],413
47,[  6.         -17.39642531 -11.51062435],578
48,[  6.         -17.33098402 -11.40081912],604
49,[  6.         -17.50725063 -11.7051838 ],608
50,[  6.         -17.26946975 -11.25553522],528
51,[  9.         -25.95190003 -17.19446563],1353
52,[ 3.         -8.70828402 -5.79730943],153
53,[ 2.         -5.76222014 -3.75493406],72
54,[  5.         -14.62368223  -9.82060932],437
55,[  6.         -17.44195213 -11.54172983],610
56,[  6.         -17.26799545 -11.43184749],590
57,[  7.         -20.20138452 -13.22177512],825
58,[  4.         -11.6192959   -7.70231272],278
59,[  5.         -14.5076368   -9.61119557],399
60,[ 3.         -8.7558183  -5.83314112],155
61,[  4.         -11.69530463  -7.82553815],282
62,[  6.         -17.28123995 -11.44941232],618
63,[ 3.         -8.69947877 -5.79754691],155
64,[  6.         -17.27703324 -11.38642954],616
65,[  5.         -14.46991976  -9.63692591],419
66,[  6.         -17.52569538 -11.66486149],592
67,[  6.         -17.28315147 -11.39602478],576
68,[  6.         -17.27980802 -11.27062428],560
69,[ 2.         -5.79293357 -3.83880494],66
70,[  5.         -14.40644338  -9.49068446],399
71,[  5.         -14.38303381  -9.39336019],395
72,[  7.         -20.11097215 -13.27143277],781
73,[  6.         -17.28983337 -11.35672889],588
74,[  6.         -17.36593753 -11.55244734],610
75,[  7.         -20.41707897 -13.57324609],847
76,[  5.         -14.47557181  -9.48211657],427
77,[  8.         -23.03911631 -15.25192054],1084
78,[  6.         -17.30500547 -11.35454413],610
79,[  5.         -14.52459751  -9.68714054],425
80,[ 3.         -8.63593328 -5.67313403],163
81,[  5.         -14.39820226  -9.4056364 ],401
82,[  5.         -14.44716404  -9.44102546],395
83,[  4.         -11.53576361  -7.62334   ],250
84,[  6.         -17.33269666 -11.45781598],602
85,[ 2.         -5.79001355 -3.82225296],66
86,[  7.         -20.09820647 -13.27771169],797
87,[  7.         -20.14005775 -13.33617671],815
88,[  5.         -14.54372623  -9.68318041],409
89,[  7.         -20.25415983 -13.35477947],815
90,[  7.         -20.24176352 -13.30338046],817
91,[  6.         -17.3425727  -11.42391295],590
92,[  4.         -11.65445321  -7.73123341],276
93,[  6.         -17.25910638 -11.27449602],578
94,[  8.         -23.01434975 -15.07643646],1048
95,[  6.         -17.35408188 -11.54807724],604
96,[  5.         -14.37051386  -9.45854163],393
97,[  6.         -17.32514536 -11.44895346],582
98,[  4.         -11.58296159  -7.62460354],302
99,[  5.         -14.48083137  -9.63922007],425
100,[  5.         -14.4969828   -9.60275273],437
101,[  5.         -14.41772708  -9.57349597],429
102,[  4.         -11.68116201  -7.78480068],272
103,[ 3.         -8.71371167 -5.78713948],155
104,[  5.         -14.41990533  -9.49760834],413
105,[ 2.         -5.79632415 -3.83937746],72
106,[ 3.         -8.73697358 -5.83456138],183
107,[  5.         -14.54624663  -9.64551153],437
108,[  5.         -14.44145199  -9.52573253],413
109,[  4.         -11.66272957  -7.76277978],284
110,[  6.         -17.55510401 -11.74652928],612
111,[  5.         -14.52277278  -9.65208407],405
112,[  6.         -17.26616995 -11.24609858],586
113,[  8.         -23.05234653 -15.22000861],1040
114,[  5.         -14.46427658  -9.48910851],387
115,[  5.         -14.37722094  -9.51829958],413
116,[  6.         -17.3323794  -11.51893874],610
117,[  5.         -14.48604661  -9.61855754],413
118,[  4.         -11.65604996  -7.76132638],264
119,[ 3.         -8.79527312 -5.89926936],171
120,[ 3.         -8.73418656 -5.83984182],161
121,[  4.         -11.65322674  -7.7937299 ],278
122,[  5.         -14.42483465  -9.58390193],417
123,[  4.         -11.66831753  -7.80156851],296
124,[  4.         -11.54082831  -7.56947745],274
125,[  8.         -23.33211829 -15.60129023],1048
126,[  5.         -14.52478813  -9.60160439],451
127,[  6.         -17.285775   -11.32025005],600
128,[  5.         -14.45705759  -9.58800748],399
129,[  4.         -11.52045385  -7.53731688],272
130,[  5.         -14.42208537  -9.46041459],435
131,[  7.         -20.46474283 -13.72040002],819
132,[  5.         -14.44647325  -9.58998512],437
133,[  6.         -17.30875944 -11.48962727],604
134,[  4.         -11.55175064  -7.6803981 ],264
135,[  4.         -11.71825378  -7.86856033],282
136,[  5.         -14.48175405  -9.60781956],397
137,[  5.         -14.43054765  -9.55396701],431
138,[  6.         -17.27013322 -11.44983945],610
139,[  6.         -17.3585606  -11.55852371],634
140,[  4.         -11.5226461   -7.62668822],290
141,[  4.         -11.56103127  -7.62630251],274
142,[  6.         -17.26718383 -11.36957211],604
143,[  7.         -20.1122786  -13.25283511],813
144,[  5.         -14.40801241  -9.42831875],421
145,[  6.         -17.29174275 -11.40266551],596
146,[  5.         -14.63961566  -9.80707643],437
147,[  6.         -17.27172005 -11.41496819],570
148,[  6.         -17.47665984 -11.59769678],588
149,[  5.         -14.51060563  -9.57295827],407
150,[  6.         -17.28043359 -11.28201651],624
151,[  6.         -17.39095773 -11.48702007],624
152,[  4.         -11.55292642  -7.66738301],270
153,[  5.         -14.50663607  -9.634093  ],437
154,[  6.         -17.32212264 -11.33291792],580
155,[  6.         -17.33316342 -11.46219893],616
156,[  5.         -14.44586246  -9.52622917],439
157,[  5.         -14.38833367  -9.50817028],437
158,[  7.         -20.29385006 -13.37192707],805
159,[ 3.         -8.69452229 -5.79748934],145
160,[  6.         -17.48859295 -11.63102543],614
161,[  5.         -14.43065213  -9.47165356],423
162,[  5.         -14.47978799  -9.5231676 ],427
163,[  8.         -23.29943028 -15.56040687],1044
164,[  4.         -11.54617679  -7.54475877],290
165,[  4.         -11.51194381  -7.55149987],258
166,[  5.         -14.63983317  -9.82244393],451
167,[  6.         -17.3744197  -11.44071545],616
168,[  6.         -17.4174399  -11.47199981],596
169,[  5.         -14.38220599  -9.49955411],441
170,[  5.         -14.43084052  -9.50309079],407
171,[  6.         -17.529493   -11.70509429],634
172,[  5.         -14.49475093  -9.59903346],393
173,[  5.         -14.57951105  -9.68586442],427
174,[  4.         -11.54314525  -7.60564398],276
175,[  7.         -20.36659246 -13.46758255],807
176,[  6.         -17.4474571  -11.62003087],642
177,[  4.         -11.56941294  -7.69901905],274
178,[ 1.         -2.87704791 -1.89373359],19
179,[ 3.         -8.64178221 -5.68454148],155
180,[  5.         -14.4455443   -9.60711147],433
181,[  6.         -17.47953473 -11.59289893],592
182,[  5.         -14.63170904  -9.83171525],441
183,[  7.         -20.17110186 -13.24042838],775
184,[  5.         -14.47886733  -9.61474253],399
185,[  7.         -20.2425911  -13.29439736],783
186,[ 3.         -8.74896134 -5.84269493],161
187,[  6.         -17.29641115 -11.3847057 ],608
188,[  7.         -20.16341178 -13.31506213],803
189,[  6.         -17.32154113 -11.49660499],588
190,[  6.         -17.28910843 -11.40464241],624
191,[  4.         -11.52793255  -7.60939065],278
192,[  7.         -20.22129722 -13.33336942],817
193,[  6.         -17.50147519 -11.69285797],608
194,[  8.         -23.17518111 -15.37785113],1066
195,[  5.         -14.55062614  -9.64607036],421
196,[  6.         -17.46568746 -11.61891832],608
197,[  5.         -14.41146099  -9.49869061],407
198,[  6.         -17.46992844 -11.61482934],612
199,[ 3.         -8.68160882 -5.6860559 ],141
200,[  5.         -14.40790494  -9.48165594],383
201,[ 3.         -8.79857384 -5.8982748 ],159
202,[  7.         -20.27519678 -13.50702571],805
203,[  6.         -17.28504596 -11.43548654],562
204,[  4.         -11.53148416  -7.62385409],284
205,[  6.         -17.57060945 -11.77948864],624
206,[  5.         -14.3737031   -9.42858685],401
207,[  6.         -17.32161897 -11.30715482],614
208,[  5.         -14.40272945  -9.45262952],397
209,[  5.         -14.58846404  -9.76870428],447
210,[  7.         -20.25591938 -13.34821973],809
211,[  6.         -17.25790317 -11.44663685],622
212,[  6.         -17.2486646  -11.42004174],586
213,[  4.         -11.62948279  -7.72242525],282
214,[  6.         -17.38296482 -11.59370865],614
215,[  4.         -11.50937864  -7.50620247],252
216,[  8.         -23.07608456 -15.10717317],1088
217,[  6.         -17.52816395 -11.66698519],610
218,[  5.         -14.39199098  -9.5361535 ],419
219,[  5.         -14.50777759  -9.59104784],445
220,[  6.         -17.50690463 -11.72864171],612
221,[  5.         -14.41074814  -9.55635027],415
222,[  6.         -17.32980261 -11.38798544],584
223,[  5.         -14.43110723  -9.43956959],415
224,[  4.         -11.57453328  -7.67630692],278
225,[  8.         -23.21191873 -15.33201788],1110
226,[ 2.         -5.78517243 -3.78477697],64
227,[  6.         -17.4908254  -11.71755883],628
228,[  6.         -17.39875301 -11.57868534],594
229,[  4.         -11.57199554  -7.66330911],256
230,[  4.         -11.55044529  -7.54691308],282
231,[ 3.         -8.66364521 -5.68668758],141
232,[  4.         -11.5767643   -7.63667198],260
233,[  7.         -20.15301972 -13.30662871],817
234,[  5.         -14.44256159  -9.60289125],423
235,[  6.         -17.27875071 -11.28336112],602
236,[  6.         -17.28526372 -11.32309052],582
237,[ 2.         -5.75463322 -3.78353544],72
238,[  8.         -23.03434153 -15.26653498],1020
239,[  5.         -14.45416569  -9.6116041 ],411
240,[  5.         -14.58429299  -9.74145963],393
241,[  5.         -14.50858509  -9.57931042],417
242,[  4.         -11.56440133  -7.63999164],256
243,[  4.         -11.57760933  -7.60462487],276
244,[  5.         -14.5146626   -9.55669207],415
245,[ 3.         -8.69504764 -5.75552294],147
246,[  4.         -11.58218742  -7.63347738],276
247,[  6.         -17.25053993 -11.31275929],592
248,[  6.         -17.36863127 -11.41669594],584
249,[  5.         -14.43574412  -9.45310052],409
250,[  6.         -17.29759459 -11.42387895],622
251,[  5.         -14.3746089   -9.52060892],417
252,[  6.         -17.26270431 -11.29833525],602
253,[  5.         -14.4305339   -9.58618281],413
254,[  7.         -20.34679    -13.56112385],801
255,[  5.        -14.4458853  -9.5306787],445
256,[  6.         -17.38160009 -11.54143237],604
257,[  4.         -11.60933644  -7.66122818],258
258,[ 3.         -8.75659412 -5.82471071],151
259,[ 3.         -8.68153572 -5.75014371],163
260,[  7.         -20.16809046 -13.17582919],757
261,[  6.         -17.38540804 -11.5780016 ],596
262,[  4.         -11.58955321  -7.66848666],288
263,[  6.         -17.49327696 -11.60215227],604
264,[  6.         -17.40776572 -11.6147493 ],640
265,[  8.         -23.05573666 -15.15583252],1056
266,[  6.         -17.41064954 -11.5113352 ],596
267,[  5.         -14.37066642  -9.47143936],417
268,[  5.         -14.55634701  -9.67896749],421
269,[  7.         -20.20004    -13.35070264],797
270,[  6.         -17.35009281 -11.44933822],574
271,[  6.         -17.3439876  -11.41969929],586
272,[  5.         -14.45485794  -9.45565339],415
273,[  8.         -23.03465967 -15.08484455],1048
274,[ 3.         -8.71469805 -5.79389991],151
275,[  7.         -20.28852571 -13.37650108],809
276,[  8.         -23.00609348 -15.20063846],1070
277,[  4.         -11.5134903   -7.58830343],264
278,[  5.         -14.45791149  -9.54149459],451
279,[  5.         -14.38521029  -9.43568906],423
280,[  6.         -17.5093788  -11.66351132],608
281,[  4.         -11.57362353  -7.59776739],274
282,[  5.         -14.64783944  -9.8230044 ],413
283,[  5.         -14.61925443  -9.786304  ],439
284,[  6.         -17.37244385 -11.57612855],598
285,[  4.         -11.64357737  -7.73350559],298
286,[ 3.         -8.65788853 -5.64956608],161
287,[  5.         -14.47065551  -9.57987064],429
288,[  6.         -17.36491686 -11.49517482],628
289,[  8.         -23.08959315 -15.13148255],1050
290,[  4.         -11.5475997   -7.65002257],276
291,[  4.         -11.59249211  -7.72680197],272
292,[  6.         -17.47244286 -11.5629589 ],616
293,[  7.         -20.38425314 -13.62749946],795
294,[  5.         -14.43365076  -9.55588161],389
295,[ 2.         -5.83828259 -3.88385777],70
296,[ 2.         -5.83281929 -3.90164853],86
297,[  7.         -20.35921567 -13.57927199],811
298,[ 3.         -8.63431917 -5.66528706],151
299,[ 3.         -8.66778377 -5.72324571],153
300,[  6.         -17.51821431 -11.72469722],602
301,[  6.         -17.34109026 -11.36809453],598
302,[  5.         -14.50418657  -9.60372771],431
303,[  6.         -17.27721682 -11.42806197],602
304,[  6.         -17.3078268  -11.47891954],594
305,[  7.         -20.23352404 -13.40215003],807
306,[  7.         -20.16990903 -13.34680434],807
307,[  5.         -14.39024061  -9.38068382],427
308,[  6.         -17.27725235 -11.36205529],600
309,[ 3.         -8.62593221 -5.67047545],155
310,[  7.         -20.17784819 -13.21376879],799
311,[  5.         -14.42475531  -9.54336906],411
312,[  5.         -14.48217649  -9.5680693 ],423
313,[  5.         -14.39819902  -9.38512113],433
314,[  4.         -11.48383968  -7.60028443],280
315,[  6.         -17.34291247 -11.46334877],604
316,[  4.         -11.51422824  -7.51128592],256
317,[  6.         -17.39874236 -11.46831217],594
318,[  4.         -11.5938651   -7.63332674],262
319,[  6.         -17.25376009 -11.41557995],588
320,[  7.         -20.21856702 -13.27146057],783
321,[ 3.         -8.70811851 -5.79044315],143
322,[  5.         -14.46515438  -9.62863067],437
323,[  8.         -23.04866416 -15.17013268],1112
324,[  6.         -17.27832086 -11.26768913],590
325,[  7.         -20.13778061 -13.14836457],773
326,[  8.         -23.17435966 -15.37807884],1034
327,[ 3.         -8.66963019 -5.69143598],149
328,[  5.         -14.4712472   -9.59517851],427
329,[ 3.         -8.67305993 -5.77124976],157
330,[  6.         -17.47465126 -11.66118745],590
331,[  5.         -14.50586131  -9.583294  ],427
332,[  7.         -20.45647206 -13.65276309],817
333,[  4.         -11.51193784  -7.5409989 ],268
334,[  5.         -14.42214073  -9.56115074],401
335,[ 2.         -5.79603274 -3.85976219],68
336,[  7.         -20.29692776 -13.42591464],821
337,[  4.         -11.52863239  -7.65528285],278
338,[  5.         -14.48867902  -9.63910331],421
339,[  7.         -20.40991772 -13.58151092],835
340,[  4.         -11.5119191   -7.57900019],260
341,[  6.         -17.3604023  -11.39810849],598
342,[  5.         -14.495206    -9.54723733],419
343,[  5.         -14.59837286  -9.72169884],443
344,[  5.         -14.41939738  -9.49361085],411
345,[  4.         -11.70175285  -7.84157941],278
346,[  6.         -17.29656986 -11.47610661],574
347,[  6.         -17.48920386 -11.69085275],602
348,[  6.         -17.33394641 -11.38220395],614
349,[  5.         -14.42333641  -9.45740929],405
350,[  4.         -11.52592523  -7.57126463],272
351,[  7.         -20.13928422 -13.23426662],797
352,[  5.         -14.44757525  -9.55979386],403
353,[ 3.        -8.7040667 -5.7618549],149
354,[ 3.         -8.67259777 -5.66706215],165
355,[  6.         -17.44038963 -11.63214139],574
356,[  4.         -11.5560405   -7.68467053],278
357,[  7.         -20.33057145 -13.49854042],815
358,[  7.         -20.13682521 -13.3295464 ],761
359,[  7.         -20.22711733 -13.26613031],835
360,[  5.         -14.4604431   -9.58306888],437
361,[  6.         -17.54354579 -11.74279704],620
362,[  5.         -14.39800069  -9.54842684],415
363,[  8.         -23.16008547 -15.38466416],1044
364,[  6.         -17.36432043 -11.49940092],618
365,[  4.         -11.63540635  -7.7603081 ],266
366,[  4.         -11.56118359  -7.61344109],264
367,[  6.         -17.41591714 -11.57495719],628
368,[  6.         -17.24985967 -11.34094393],590
369,[  6.         -17.28774013 -11.40496273],624
370,[  5.         -14.52980309  -9.65953395],457
371,[  6.         -17.40266969 -11.50430903],642
372,[  4.         -11.51925822  -7.60649852],264
373,[  7.         -20.18644875 -13.34749307],855
374,[  5.         -14.51420243  -9.59816737],407
375,[  6.         -17.31327935 -11.47764443],592
376,[  4.         -11.59579861  -7.65028958],258
377,[  8.         -23.18279075 -15.32774568],1074
378,[  4.         -11.52921513  -7.5192514 ],278
379,[  6.         -17.4810212  -11.61003773],616
380,[  7.         -20.16105764 -13.37584707],783
381,[  7.         -20.32030101 -13.54438375],843
382,[  7.         -20.12170205 -13.33867561],761
383,[ 3.         -8.66702712 -5.69396638],147
384,[  4.         -11.56315027  -7.56132638],274
385,[  5.         -14.55379841  -9.69365168],431
386,[  4.         -11.58324362  -7.68884384],266
387,[  5.         -14.43651561  -9.44265872],427
388,[ 3.         -8.71278285 -5.76638929],155
389,[  6.         -17.36864221 -11.41904836],586
390,[  8.         -23.04090661 -15.02739327],992
391,[  4.         -11.53277248  -7.63622069],268
392,[  6.         -17.4614611  -11.55155825],608
393,[  6.         -17.42395156 -11.58109916],616
394,[  6.         -17.31413003 -11.3917278 ],596
395,[ 3.         -8.66983443 -5.69358511],145
396,[  8.         -23.2505079  -15.41195994],1038
397,[ 3.         -8.63319929 -5.65141905],151
398,[  4.         -11.52686422  -7.6445581 ],236
399,[  6.         -17.46037351 -11.63848383],586
400,[  7.         -20.37860684 -13.508817  ],815
401,[  6.         -17.30912519 -11.45166957],614
402,[  5.         -14.44388158  -9.58436051],429
403,[ 3.         -8.67418893 -5.74840224],145
404,[  6.         -17.46601895 -11.5703979 ],600
405,[  4.         -11.66780016  -7.80745566],280
406,[ 2.         -5.79614934 -3.80937677],74
407,[  5.         -14.36490795  -9.50871675],405
408,[  6.         -17.29307947 -11.36271192],580
409,[  5.         -14.64024959  -9.79929255],415
410,[  6.         -17.35251662 -11.50457855],614
411,[  4.         -11.52603286  -7.53663432],274
412,[  5.         -14.5691143   -9.70906701],429
413,[  7.        -20.2091761 -13.3997291],831
414,[  5.         -14.62387485  -9.79210261],467
415,[  5.         -14.37934796  -9.47124984],427
416,[  5.         -14.47920233  -9.54208247],419
417,[ 3.         -8.7562589  -5.82927293],151
418,[  7.         -20.27642445 -13.36103652],813
419,[ 3.         -8.63362301 -5.69936162],165
420,[  6.         -17.42202363 -11.5655294 ],590
421,[  8.         -23.07602749 -15.04939201],1024
422,[ 3.         -8.65175637 -5.68900774],149
423,[  7.         -20.19109829 -13.22340223],781
424,[  5.         -14.45954344  -9.52421796],405
425,[  4.         -11.61865854  -7.66549133],260
426,[  5.         -14.38322564  -9.54121218],415
427,[  4.         -11.5456813   -7.62823458],276
428,[  7.         -20.18531847 -13.34918329],803
429,[  6.         -17.43869788 -11.51043493],588
430,[ 2.         -5.75929809 -3.77733471],80
431,[  6.         -17.50643559 -11.67527529],592
432,[  6.         -17.24329224 -11.35594282],580
433,[  4.         -11.58192835  -7.62915355],282
434,[  5.         -14.39934127  -9.45013045],415
435,[  8.         -23.02530068 -15.24243411],1004
436,[  4.         -11.51060392  -7.58566825],266
437,[  4.         -11.54402792  -7.60086736],286
438,[  7.         -20.37742089 -13.55374897],817
439,[  6.         -17.31581679 -11.46403345],600
440,[  5.         -14.48043316  -9.63990963],407
441,[  7.         -20.32538285 -13.5345939 ],823
442,[  5.         -14.38439333  -9.52854607],435
443,[  5.         -14.39955911  -9.51334744],403
444,[  5.         -14.48551875  -9.62054936],459
445,[  4.         -11.70018368  -7.84022553],306
446,[  8.         -23.03535585 -15.06141723],1020
447,[  5.         -14.45244802  -9.58602082],405
448,[  6.         -17.31051931 -11.50536465],604
449,[  7.         -20.13736587 -13.14401539],787
450,[  4.         -11.63041453  -7.73992902],272
451,[  6.         -17.56005136 -11.78068463],608
452,[  4.         -11.50824109  -7.5274017 ],280
453,[  4.         -11.48881994  -7.58049253],276
454,[  7.         -20.23690135 -13.30697597],821
455,[  7.         -20.22527454 -13.21271612],785
456,[  5.         -14.43367616  -9.43374461],415
457,[ 3.         -8.66987851 -5.69574784],141
458,[  5.         -14.56413991  -9.69779176],423
459,[  6.         -17.37060547 -11.47806923],598
460,[  4.         -11.68471187  -7.8077504 ],274
461,[  6.         -17.27546439 -11.32482334],582
462,[  7.         -20.31078315 -13.425826  ],837
463,[  4.         -11.58957771  -7.66942306],256
464,[  4.         -11.68466821  -7.80611764],282
465,[  5.         -14.39258422  -9.41906663],439
466,[  6.         -17.55189326 -11.76769694],632
467,[  5.         -14.46183143  -9.6096391 ],417
468,[  5.         -14.38369288  -9.48449448],409
469,[  5.         -14.42292013  -9.55383681],413
470,[ 2.         -5.82022893 -3.85863237],88
471,[ 3.         -8.63235257 -5.70504947],159
472,[  5.         -14.61265309  -9.80750278],447
473,[  8.         -23.03621172 -15.13978614],1058
474,[  5.         -14.42072171  -9.56954551],413
475,[  5.         -14.44359555  -9.59162819],405
476,[ 3.         -8.70062357 -5.77112599],161
477,[ 3.         -8.65713984 -5.73202148],149
478,[ 3.         -8.66393827 -5.66878848],147
479,[  7.         -20.21321911 -13.23357664],807
480,[  7.         -20.28971569 -13.53687277],839
481,[  6.         -17.44914153 -11.58161426],632
482,[  8.         -23.06083844 -15.31622792],1112
483,[  6.         -17.41389148 -11.50949414],588
484,[  7.         -20.16701037 -13.29145613],765
485,[  9.         -25.91621915 -16.90478674],1325
486,[  5.         -14.49735955  -9.5470943 ],389
487,[  5.         -14.42155963  -9.48683097],413
488,[  5.         -14.39829247  -9.44031046],419
489,[  9.         -25.91443676 -17.10680967],1301
490,[  6.         -17.29490646 -11.42510601],620
491,[  6.         -17.37336661 -11.40805836],606
492,[  5.         -14.47304224  -9.63957415],417
493,[  5.         -14.46328716  -9.5049615 ],429
494,[  7.         -20.46618386 -13.74323502],787
495,[  5.         -14.46948994  -9.49178798],395
496,[  7.         -20.21522479 -13.31712075],777
497,[ 3.         -8.75935244 -5.83074507],155
498,[  6.         -17.29350758 -11.4616487 ],606
499,[  6.         -17.36850593 -11.4184905 ],608
500,[  6.         -17.27521374 -11.30528476],566
501,[  4.         -11.52098354  -7.58522913],268
502,[  4.         -11.65584194  -7.80791729],280
503,[  5.         -14.52849534  -9.67890983],423
504,[  5.         -14.43735073  -9.46067   ],433
505,[  7.         -20.19953904 -13.17549438],779
506,[  5.         -14.46184266  -9.48078257],423
507,[  7.         -20.40117393 -13.56625595],831
508,[  6.         -17.39709529 -11.44126299],602
509,[  6.         -17.29656236 -11.49147414],572
510,[  5.         -14.64326984  -9.83753539],425
511,[  6.         -17.34067945 -11.43960532],596
512,[  7.         -20.11764639 -13.31427736],797
513,[  5.         -14.36983261  -9.47241364],389
514,[  5.         -14.4093013   -9.53530421],425
515,[  7.         -20.19779062 -13.23297452],783
516,[ 3.         -8.63256821 -5.65137128],143
517,[  7.         -20.15777548 -13.14253719],807
518,[  6.         -17.42727447 -11.55431919],626
519,[  4.         -11.6787542   -7.82490265],294
520,[  6.         -17.23332653 -11.37066452],568
521,[  6.         -17.46230017 -11.55027875],612
522,[  5.         -14.47735513  -9.64305828],403
523,[  4.         -11.60771394  -7.63671331],264
524,[  6.         -17.42682597 -11.50640685],586
525,[ 3.         -8.68836106 -5.76498302],157
526,[  4.         -11.66499606  -7.78707071],272
527,[  4.         -11.58965141  -7.70997534],266
528,[  5.         -14.51878252  -9.57203606],411
529,[  5.         -14.43857309  -9.51307697],449
530,[  6.         -17.34867805 -11.51445641],610
531,[ 3.         -8.63126787 -5.70798113],157
532,[  5.         -14.40421744  -9.55618918],453
533,[  4.         -11.69856781  -7.83083069],252
534,[  4.         -11.51847557  -7.53529103],248
535,[ 3.         -8.65980428 -5.67682088],157
536,[  4.         -11.59835209  -7.62250971],268
537,[  4.         -11.59070705  -7.69786282],284
538,[  6.         -17.26204558 -11.28178965],600
539,[  5.         -14.43275103  -9.47077641],437
540,[  6.         -17.38724007 -11.46250981],600
541,[  5.         -14.38028048  -9.43997404],401
542,[  5.         -14.61806506  -9.74856029],409
543,[  6.         -17.24133992 -11.40277494],588
544,[  4.         -11.59329488  -7.65948171],296
545,[  4.         -11.66585306  -7.74911495],272
546,[  4.         -11.68079437  -7.7892361 ],300
547,[  4.         -11.5940038   -7.70879223],278
548,[  4.         -11.52875526  -7.57462715],266
549,[  4.         -11.54115617  -7.53786235],268
550,[  8.         -23.25389671 -15.46759261],1064
551,[  7.         -20.35534922 -13.53532344],799
552,[  6.         -17.28393872 -11.30489448],590
553,[  5.         -14.58231799  -9.75573035],419
554,[  4.         -11.48816703  -7.57980678],270
555,[  5.         -14.56054518  -9.71647484],423
556,[ 3.         -8.70143355 -5.74721933],143
557,[  6.         -17.57446604 -11.79095948],630
558,[  5.         -14.46044497  -9.60857694],429
559,[  5.         -14.61356022  -9.78108253],419
560,[  6.         -17.458083   -11.57933457],620
561,[ 1.         -2.92357338 -1.95783734],23
562,[  5.         -14.38418906  -9.49235183],419
563,[ 3.         -8.62445245 -5.70736659],155
564,[  4.         -11.5035937   -7.53451291],268
565,[  5.         -14.65110133  -9.81936535],441
566,[  6.         -17.47416706 -11.65314839],622
567,[  4.         -11.65242127  -7.74881968],274
568,[  4.         -11.55451729  -7.6709846 ],294
569,[  5.         -14.38420507  -9.46229363],397
570,[ 3.         -8.76289962 -5.86858062],165
571,[  4.         -11.49368626  -7.61336696],274
572,[  5.         -14.55930391  -9.65564852],405
573,[  4.         -11.57784969  -7.60765189],288
574,[  4.         -11.58359035  -7.71011768],262
575,[  4.         -11.53528431  -7.62300072],266
576,[  7.         -20.30894192 -13.36265112],771
577,[  7.         -20.19211588 -13.27706353],755
578,[  5.         -14.47620954  -9.62492507],431
579,[  7.         -20.1198803  -13.20102746],777
580,[  7.         -20.17732604 -13.15191169],805
581,[  4.         -11.66750424  -7.76748426],274
582,[  4.         -11.50210828  -7.585124  ],276
583,[  6.         -17.29843396 -11.33364235],604
584,[  5.         -14.45827047  -9.56001131],391
585,[  8.         -23.00135034 -15.08523177],1040
586,[  5.         -14.50477903  -9.60103025],437
587,[  5.         -14.35521334  -9.49232589],393
588,[  6.         -17.37256233 -11.57436824],586
589,[  4.         -11.55632791  -7.56674773],270
590,[  5.         -14.5473042   -9.69840937],439
591,[  4.         -11.60726266  -7.64886127],266
592,[  4.         -11.54726292  -7.65103385],268
593,[ 3.         -8.66048098 -5.74377743],167
594,[  5.         -14.49352631  -9.59112391],449
595,[  6.         -17.24537557 -11.42396873],626
596,[  6.         -17.26480805 -11.30426369],580
597,[ 3.         -8.66836517 -5.69429078],141
598,[  4.         -11.56688778  -7.63691326],286
599,[  5.         -14.46612912  -9.48866548],407
600,[ 3.         -8.73277832 -5.8415348 ],165
601,[  5.         -14.53828617  -9.66738985],425
602,[  6.         -17.48280175 -11.69798821],626
603,[  4.         -11.52626163  -7.52326558],260
604,[ 3.         -8.64450894 -5.68528736],167
605,[  6.         -17.32152769 -11.40731349],554
606,[  6.         -17.35885803 -11.47584244],596
607,[ 3.         -8.63230389 -5.71003517],153
608,[  7.         -20.1481554  -13.23785685],785
609,[  5.         -14.39593238  -9.44920142],429
610,[  4.         -11.59580066  -7.68391047],262
611,[  4.         -11.6206818   -7.70295798],278
612,[  4.         -11.53635257  -7.64217656],280
613,[  6.         -17.26076888 -11.43407382],596
614,[ 3.         -8.70137362 -5.73698097],159
615,[  5.         -14.47720592  -9.59945681],431
616,[  9.         -26.03886249 -17.09997141],1339
617,[  5.         -14.39421394  -9.38745712],393
618,[  4.         -11.55628304  -7.68848453],260
619,[  6.         -17.23605112 -11.38965769],578
620,[ 3.         -8.75326535 -5.81301549],149
621,[  6.         -17.44293546 -11.57707509],592
622,[  6.         -17.28790733 -11.47141193],626
623,[  6.         -17.44812648 -11.63419273],584
624,[  8.         -23.05960333 -15.10166974],1038
625,[ 3.         -8.62292743 -5.69821887],153
626,[  5.         -14.405813    -9.41291027],423
627,[  7.         -20.22982035 -13.44761298],819
628,[  4.         -11.50538732  -7.53474701],298
629,[  4.         -11.63367201  -7.7356285 ],272
630,[  4.         -11.56053257  -7.55240855],266
631,[  5.         -14.45927411  -9.51152372],441
632,[  8.         -23.0131185  -15.22221981],1056
633,[  6.         -17.33101649 -11.36917814],584
634,[  6.         -17.25180488 -11.37325835],580
635,[  5.         -14.46240685  -9.582809  ],461
636,[  4.         -11.57948895  -7.65128135],258
637,[  5.         -14.49950711  -9.61202759],427
638,[ 2.         -5.77261106 -3.79944684],74
639,[  6.         -17.5431268  -11.71982073],604
640,[  7.         -20.24883205 -13.31000406],807
641,[  4.         -11.57250551  -7.63798472],274
642,[  6.         -17.28976119 -11.41530237],602
643,[  6.         -17.50828909 -11.64301157],598
644,[  5.         -14.52065625  -9.62928288],417
645,[  4.         -11.66702099  -7.81299486],268
646,[  6.         -17.37156815 -11.56571919],592
647,[  7.         -20.17269512 -13.23602408],789
648,[  5.         -14.53499515  -9.59444767],427
649,[  4.         -11.62572825  -7.76046115],286
650,[  7.         -20.15619818 -13.32802556],783
651,[  4.         -11.58692409  -7.67046983],270
652,[  5.         -14.4557627   -9.46388775],413
653,[  7.         -20.22223704 -13.32968111],815
654,[ 3.         -8.67925836 -5.75044964],163
655,[  5.         -14.50950235  -9.58234472],411
656,[  5.         -14.63786369  -9.83604547],417
657,[  5.         -14.40672597  -9.56192514],411
658,[  5.         -14.62824381  -9.82291128],447
659,[  6.         -17.50609159 -11.65087155],642
660,[  4.         -11.55304174  -7.57281078],272
661,[  5.         -14.42084496  -9.47022951],399
662,[  5.        -14.4452201  -9.512002 ],425
663,[  7.         -20.19273601 -13.17359881],775
664,[ 3.         -8.71221088 -5.78679607],147
665,[  6.         -17.45028855 -11.63082811],598
666,[  8.         -23.00689086 -15.11303922],1034
667,[  5.         -14.49434975  -9.59485484],391
668,[  6.         -17.24919832 -11.41332443],602
669,[  8.         -23.07334468 -15.11249754],1080
670,[  4.         -11.51174343  -7.5031113 ],252
671,[  7.         -20.28296447 -13.45467108],827
672,[  4.         -11.61733195  -7.67550483],282
673,[  7.         -20.33462625 -13.47016409],805
674,[  6.         -17.25577427 -11.4007818 ],576
675,[  7.         -20.25211239 -13.2703022 ],793
676,[  5.         -14.45319597  -9.49448727],429
677,[  4.         -11.67477155  -7.76809904],288
678,[ 3.         -8.72387011 -5.76045149],165
679,[ 3.         -8.63784556 -5.65782707],145
680,[  4.         -11.56685721  -7.62695588],252
681,[  7.         -20.35021956 -13.44853662],801
682,[  4.         -11.5142315   -7.59534871],262
683,[  6.         -17.32516865 -11.46675391],632
684,[  7.         -20.29192599 -13.33677386],811
685,[  4.         -11.53599703  -7.61527276],272
686,[  4.         -11.61579121  -7.70802031],270
687,[  5.         -14.64470141  -9.82244827],441
688,[  4.         -11.72046874  -7.85276098],292
689,[ 3.         -8.68448591 -5.72970391],155
690,[  7.         -20.16658491 -13.37262815],837
691,[  5.         -14.39147412  -9.50790422],403
692,[  4.         -11.56873027  -7.6617828 ],280
693,[  4.         -11.55776055  -7.54729825],284
694,[  5.         -14.53892282  -9.64164451],417
695,[  5.         -14.56344979  -9.65056527],419
696,[  7.         -20.20459657 -13.40839404],809
697,[  5.         -14.55848102  -9.64305629],435
698,[  7.         -20.21212294 -13.44224152],813
699,[ 2.         -5.80203694 -3.82094324],74
700,[ 3.         -8.69621794 -5.77390131],181
701,[  6.         -17.47871112 -11.61972968],624
702,[  5.         -14.41978661  -9.40531374],403
703,[  5.         -14.40199406  -9.4910544 ],413
704,[  5.         -14.39154944  -9.5074487 ],421
705,[  8.         -23.09542086 -15.29562229],1078
706,[  6.         -17.52945773 -11.75003001],632
707,[  6.         -17.32675375 -11.46482642],614
708,[  6.         -17.2738297  -11.33326517],602
709,[  7.         -20.12972527 -13.17553835],829
710,[  4.         -11.51624617  -7.56333206],278
711,[  7.         -20.1770749  -13.20373631],785
712,[  5.         -14.44627845  -9.44716598],417
713,[  6.         -17.27767053 -11.38001883],608
714,[  6.         -17.33451717 -11.3790829 ],612
715,[  6.         -17.52192891 -11.7184456 ],626
716,[  7.         -20.14380486 -13.15308068],765
717,[ 2.         -5.83947218 -3.88909369],82
718,[  7.         -20.14755256 -13.32863133],853
719,[  4.         -11.54552185  -7.6492644 ],270
720,[ 3.         -8.69404551 -5.73604145],167
721,[  8.         -23.13744452 -15.18741711],1036
722,[ 3.         -8.71319069 -5.77196929],139
723,[  6.         -17.33380655 -11.34557741],612
724,[ 3.         -8.7126575  -5.77621989],159
725,[  4.         -11.70419449  -7.82961455],278
726,[  7.         -20.20106091 -13.28677478],807
727,[  5.         -14.4582922   -9.61088487],409
728,[  4.         -11.5084201   -7.59893311],264
729,[  7.         -20.20016053 -13.20240395],817
730,[  4.         -11.50413602  -7.51980212],270
731,[  7.         -20.23045377 -13.29214667],811
732,[ 2.         -5.77830621 -3.78927121],66
733,[  5.         -14.41244249  -9.53883386],399
734,[  4.         -11.7040451   -7.81972693],274
735,[  5.         -14.50261359  -9.54960185],411
736,[  8.         -23.21015199 -15.32762036],1064
737,[  4.         -11.70053046  -7.84042849],286
738,[ 3.         -8.76102994 -5.83608362],163
739,[  9.         -25.96126107 -16.94561941],1339
740,[  5.         -14.42181347  -9.54984268],395
741,[ 3.         -8.68145277 -5.76195526],151
742,[  5.         -14.4528742   -9.57454664],419
743,[  5.         -14.43221875  -9.42422386],419
744,[  4.         -11.62474351  -7.72400865],276
745,[  4.         -11.64143579  -7.71378745],262
746,[  6.         -17.33966521 -11.53602032],598
747,[  6.         -17.30077789 -11.28272116],584
748,[  8.         -23.09520642 -15.11396533],1086
749,[ 3.         -8.71344531 -5.79365257],159
750,[ 3.         -8.70156631 -5.7603731 ],153
751,[  5.         -14.42175448  -9.4773915 ],417
752,[  6.         -17.46750431 -11.61599822],628
753,[  8.         -23.00659996 -15.06564168],1050
754,[  5.         -14.53601508  -9.62720002],441
755,[  8.         -23.3365573  -15.57557772],1116
756,[  6.         -17.4512225  -11.53751006],594
757,[  6.         -17.57464509 -11.75881549],650
758,[  4.         -11.52584085  -7.57636308],288
759,[  7.         -20.36766272 -13.60917251],857
760,[  7.         -20.24413279 -13.3035773 ],787
761,[  4.         -11.51984061  -7.59722133],272
762,[  7.         -20.15953855 -13.27459057],807
763,[  6.         -17.39379448 -11.50373808],608
764,[  6.         -17.33187579 -11.4674348 ],596
765,[ 1.         -2.91794085 -1.93816612],19
766,[  5.         -14.4342564   -9.44649089],419
767,[  8.         -23.30751426 -15.48457594],1068
768,[  5.         -14.35632382  -9.49168374],413
769,[  8.         -23.00316547 -15.09375124],1052
770,[  8.         -23.42417493 -15.73222973],1058
771,[  5.         -14.37099608  -9.4776517 ],409
772,[ 2.         -5.79358067 -3.83887875],74
773,[  7.         -20.17892077 -13.28965526],811
774,[ 3.         -8.78238841 -5.87889996],169
775,[  6.         -17.25703498 -11.27674374],582
776,[  8.         -23.13065673 -15.15857372],1102
777,[  5.         -14.46937983  -9.49281445],411
778,[ 3.         -8.75747804 -5.82154306],165
779,[  7.         -20.17364467 -13.39644412],791
780,[  4.         -11.49256578  -7.56617822],292
781,[  6.         -17.38975336 -11.43760047],622
782,[  5.         -14.56995642  -9.68288065],427
783,[  7.         -20.13854559 -13.32641139],817
784,[  7.         -20.26786855 -13.45564968],815
785,[  6.         -17.47140749 -11.66818594],576
786,[  6.         -17.32426374 -11.3571735 ],598
787,[  4.         -11.53494802  -7.59045028],260
788,[  4.         -11.64444287  -7.7070285 ],272
789,[  6.         -17.23489422 -11.38886507],620
790,[ 3.         -8.6821203  -5.73360725],153
791,[  6.         -17.40984396 -11.49038752],616
792,[  4.         -11.53326711  -7.64660184],280
793,[  5.         -14.41371033  -9.40220343],391
794,[  4.         -11.56522876  -7.59717295],256
795,[  4.         -11.63169344  -7.76979295],290
796,[  4.         -11.53149839  -7.5883878 ],250
797,[  5.         -14.65535624  -9.82547283],421
798,[  5.         -14.48998089  -9.52285208],417
799,[ 3.         -8.69517867 -5.7427787 ],155
800,[  7.         -20.44912273 -13.61107468],843
801,[  7.         -20.22772592 -13.23521225],781
802,[  4.         -11.56484418  -7.67783034],250
803,[  6.         -17.50717341 -11.73586211],624
804,[ 2.         -5.75984589 -3.8162156 ],86
805,[ 3.         -8.63242071 -5.68139622],167
806,[ 3.         -8.73492043 -5.79132464],147
807,[  4.         -11.58546937  -7.64667425],264
808,[  6.         -17.34999167 -11.38265187],572
809,[  4.         -11.68453547  -7.81333749],298
810,[  5.         -14.42434566  -9.45472557],385
811,[  4.         -11.56099992  -7.5943735 ],274
812,[  7.         -20.27815853 -13.49143787],819
813,[ 3.         -8.68898743 -5.77980376],155
814,[  5.         -14.54319864  -9.63408096],409
815,[ 3.         -8.78016954 -5.8796526 ],171
816,[  6.        -17.404995  -11.4952167],604
817,[  4.         -11.52030024  -7.64090758],278
818,[ 3.         -8.6641426  -5.66838405],165
819,[  4.         -11.53937708  -7.63275986],258
820,[  4.         -11.50240925  -7.57904461],266
821,[  5.         -14.65068946  -9.83832363],419
822,[  8.         -23.28337674 -15.40282285],1062
823,[  4.         -11.51999185  -7.64150038],260
824,[  5.         -14.39804714  -9.54365719],433
825,[  9.         -25.92501191 -17.17860114],1347
826,[  5.         -14.59672719  -9.76096068],409
827,[  7.         -20.29115239 -13.46538248],809
828,[  4.         -11.5215438   -7.59249284],272
829,[  5.         -14.54030763  -9.6751539 ],403
830,[  5.         -14.51642435  -9.62226614],425
831,[  7.         -20.27206119 -13.41720118],835
832,[  5.         -14.37964524  -9.4178578 ],411
833,[  4.         -11.52366627  -7.53795077],252
834,[  6.         -17.26373311 -11.26327422],642
835,[  6.         -17.47379416 -11.68550093],610
836,[  5.         -14.53009193  -9.67769119],415
837,[  4.         -11.55063499  -7.65078863],274
838,[  4.         -11.56380121  -7.59606565],274
839,[ 2.         -5.80244305 -3.84098589],84
840,[  6.         -17.26856842 -11.28925183],594
841,[  5.         -14.42468115  -9.44998378],407
842,[  5.         -14.44662196  -9.60572226],385
843,[  6.         -17.39383037 -11.43438004],616
844,[  7.         -20.13052309 -13.32702737],821
845,[  5.         -14.52829433  -9.60042171],455
846,[  4.         -11.53729491  -7.66337839],266
847,[  7.         -20.25253559 -13.26770387],819
848,[ 2.         -5.80621705 -3.85540785],64
849,[  7.         -20.15598651 -13.29895122],789
850,[  5.         -14.57828116  -9.6780649 ],429
851,[  4.         -11.51656006  -7.564944  ],268
852,[  5.         -14.45261424  -9.60863584],417
853,[ 3.         -8.64269857 -5.68811478],153
854,[  6.         -17.3308966  -11.51386175],596
855,[  5.         -14.48917563  -9.57330546],421
856,[  4.         -11.53350957  -7.55051551],288
857,[ 2.         -5.76476964 -3.80637193],68
858,[  4.         -11.62038681  -7.69758827],276
859,[  5.         -14.54985319  -9.62398865],441
860,[  4.         -11.56841934  -7.58002498],254
861,[  7.         -20.12347529 -13.30154097],783
862,[  6.         -17.32643699 -11.33307013],596
863,[  5.         -14.50798619  -9.63269004],397
864,[  5.         -14.3843825   -9.51171872],415
865,[  6.         -17.46877029 -11.65595914],572
866,[  7.         -20.16337071 -13.21957894],801
867,[  6.         -17.24009022 -11.33538574],586
868,[  5.         -14.46240237  -9.4681723 ],399
869,[  6.         -17.29755092 -11.47293288],594
870,[  4.         -11.71576561  -7.84658783],286
871,[  5.         -14.596365    -9.78353619],415
872,[  6.         -17.30063468 -11.48200229],606
873,[  5.         -14.41680297  -9.47634563],417
874,[  8.         -23.04329481 -15.14732618],1048
875,[  5.         -14.4751746   -9.58759138],425
876,[ 2.         -5.76852471 -3.78047431],80
877,[  6.         -17.30835703 -11.28881819],556
878,[  7.         -20.26900783 -13.48414142],791
879,[  6.         -17.43881555 -11.639385  ],618
880,[  7.         -20.16263629 -13.17597914],797
881,[  6.         -17.27910653 -11.4289113 ],554
882,[  6.         -17.38008413 -11.49464254],592
883,[  6.         -17.30995682 -11.35606293],600
884,[  4.         -11.67043659  -7.80449562],262
885,[  5.         -14.45114172  -9.54474532],383
886,[  4.         -11.55580618  -7.66643706],280
887,[  5.         -14.42808986  -9.54837027],405
888,[ 3.         -8.63662182 -5.6830523 ],151
889,[ 3.         -8.67789779 -5.72940239],149
890,[  7.         -20.26263765 -13.36036928],799
891,[  4.         -11.57648601  -7.65661121],294
892,[  6.         -17.30692509 -11.34479877],582
893,[  4.         -11.58841391  -7.71720156],274
894,[  6.         -17.27254958 -11.44660948],588
895,[  5.         -14.43995655  -9.58303338],433
896,[  8.         -23.25172209 -15.4241968 ],1072
897,[  5.         -14.4098886   -9.55219088],397
898,[  6.         -17.30927334 -11.29914963],606
899,[  6.         -17.33172348 -11.3682161 ],610
900,[  5.         -14.5824145   -9.75450413],433
901,[  5.         -14.59217187  -9.71180422],413
902,[ 2.         -5.79533094 -3.85662964],72
903,[  5.         -14.62514183  -9.80991398],429
904,[ 3.         -8.63804689 -5.66366748],163
905,[  6.         -17.39123904 -11.47776369],612
906,[  5.         -14.50376336  -9.67943789],429
907,[  6.         -17.37755726 -11.48023914],614
908,[  6.         -17.29953194 -11.35211108],574
909,[  6.         -17.49158724 -11.65583506],620
910,[  5.         -14.39911223  -9.39585826],393
911,[  8.         -23.11273483 -15.15555853],1086
912,[  6.         -17.25196525 -11.31987882],592
913,[  5.         -14.45675996  -9.54030778],425
914,[  6.         -17.41141995 -11.5140727 ],614
915,[  7.         -20.30384398 -13.35912402],821
916,[  6.         -17.31390705 -11.48241824],606
917,[  6.         -17.32210658 -11.39454541],580
918,[  7.         -20.12872945 -13.20429326],815
919,[  8.         -23.02641682 -15.15331318],1016
920,[  5.         -14.46668076  -9.61023044],421
921,[ 2.         -5.75613068 -3.7975242 ],74
922,[  6.         -17.31719231 -11.47049969],606
923,[  6.         -17.44147211 -11.60610752],618
924,[  5.         -14.37877306  -9.45350517],415
925,[  5.         -14.51657426  -9.57704966],399
926,[  6.         -17.25471818 -11.29456655],588
927,[  6.         -17.25222725 -11.30284337],542
928,[  4.         -11.65686285  -7.72520659],270
929,[  4.         -11.50693621  -7.58421526],278
930,[  6.         -17.35383758 -11.50177311],598
931,[  6.         -17.36853362 -11.3946067 ],590
932,[  5.         -14.40954961  -9.43518834],463
933,[ 3.         -8.68684611 -5.70718902],151
934,[ 3.         -8.71397181 -5.81336696],163
935,[ 2.         -5.7609938  -3.81822256],66
936,[ 2.         -5.77333088 -3.83432557],74
937,[  9.         -26.13138961 -17.40467072],1357
938,[  6.         -17.3395902  -11.48661683],606
939,[ 2.         -5.761534   -3.81991412],74
940,[ 3.         -8.68071997 -5.73972079],145
941,[  5.         -14.47023426  -9.57346292],429
942,[  4.         -11.66954121  -7.76901879],292
943,[ 2.         -5.83976319 -3.89788664],64
944,[  5.         -14.40486041  -9.44899029],423
945,[  8.         -23.43712539 -15.72278217],1116
946,[  7.         -20.35352845 -13.48713954],799
947,[  5.         -14.4046108   -9.41084232],423
948,[  5.         -14.41524712  -9.41947767],421
949,[  6.         -17.51604077 -11.67011079],640
950,[  7.         -20.26571205 -13.42104095],825
951,[ 2.         -5.77195831 -3.78370715],78
952,[  6.         -17.56090015 -11.75469065],608
953,[  5.         -14.50329096  -9.63342101],405
954,[  4.         -11.67136231  -7.79845945],276
955,[  6.         -17.41597039 -11.59585847],592
956,[  6.         -17.37256439 -11.38196863],602
957,[ 3.         -8.62195206 -5.68104941],167
958,[  6.        -17.3773009 -11.4459287],588
959,[  7.         -20.29199583 -13.40841041],825
960,[ 3.         -8.61411646 -5.69381257],177
961,[  6.         -17.32704425 -11.50202877],600
962,[  5.         -14.42935456  -9.58030592],419
963,[  4.         -11.57246164  -7.65312156],264
964,[  6.         -17.2940298  -11.48929526],594
965,[  4.         -11.60606064  -7.66466474],272
966,[  7.         -20.12044567 -13.26564094],833
967,[  8.         -23.01335865 -15.1609765 ],1036
968,[  7.         -20.1491092  -13.21829029],783
969,[ 3.         -8.71201919 -5.77303825],145
970,[  4.         -11.54146145  -7.5738331 ],266
971,[  6.         -17.48443874 -11.68751768],600
972,[  5.         -14.59960085  -9.72044325],455
973,[  6.         -17.37310373 -11.51313909],610
974,[  5.         -14.39839222  -9.4942613 ],415
975,[ 2.         -5.8409373  -3.89098321],74
976,[  5.         -14.52982786  -9.62038745],415
977,[  6.         -17.2579402  -11.43310511],606
978,[ 3.         -8.67313539 -5.68218707],153
979,[  7.         -20.18571573 -13.2810111 ],805
980,[  4.         -11.50975385  -7.6305616 ],282
981,[  6.         -17.47260693 -11.65548573],594
982,[  6.         -17.44807412 -11.66796654],596
983,[  8.         -23.12659744 -15.27633217],1052
984,[  6.         -17.34897563 -11.37473529],606
985,[  6.         -17.28972572 -11.40791663],602
986,[  8.         -23.22061655 -15.47283896],1084
987,[  6.         -17.29209974 -11.44325635],626
988,[ 2.         -5.79150524 -3.8319046 ],72
989,[  7.         -20.18958098 -13.27802121],811
990,[  6.         -17.478534   -11.59061103],646
991,[  6.         -17.24000254 -11.34313251],582
992,[  4.         -11.54592681  -7.57907081],268
993,[  7.         -20.31592503 -13.49990542],843
994,[  5.         -14.37619051  -9.49870633],407
995,[  4.         -11.5479311   -7.55458946],276
996,[  7.         -20.33502209 -13.43755832],809
997,[  7.         -20.14455311 -13.19765616],805
998,[  6.         -17.32818241 -11.35546142],600
999,[  7.         -20.34980793 -13.54520106],785
