,weights,success_tries
0,[-1.         -4.09090454  2.66599173],101
1,[-1.         -4.00363779  2.70601969],93
2,[-1.         -4.16957172  2.60044254],93
3,[-1.         -3.64551325  2.44003568],81
4,[-1.         -4.31554151  2.76147452],107
5,[-1.         -3.64551325  2.44003568],81
6,[-1.         -4.09090454  2.66599173],101
7,[-1.         -3.80537687  2.56926576],93
8,[-1.         -3.67811482  2.57284288],95
9,[-1.         -4.36759556  2.82081263],113
10,[-1.         -3.80537687  2.56926576],93
11,[-1.         -4.07493654  2.64424075],99
12,[-1.         -4.16957172  2.60044254],93
13,[-1.         -3.7032354   2.56706952],93
14,[-1.         -4.31554151  2.76147452],107
15,[-1.         -3.73735482  2.48817668],85
16,[-1.         -3.64551325  2.44003568],81
17,[-1.         -3.79728068  2.64807433],89
18,[-1.         -3.84604197  2.61759989],101
19,[-1.         -4.20773195  2.69158255],101
20,[-1.         -3.84502964  2.54129183],89
21,[-1.         -4.07493654  2.64424075],99
22,[-1.         -3.79507697  2.61521051],97
23,[-1.         -3.73735482  2.48817668],85
24,[-1.         -3.99854563  2.92377413],93
25,[-1.         -4.31554151  2.76147452],107
26,[-1.         -4.20773195  2.69158255],101
27,[-1.         -3.96199179  2.58365947],91
28,[-1.         -3.73735482  2.48817668],85
29,[-1.         -3.75273292  2.63473067],89
30,[-1.         -3.88199849  2.67587607],117
31,[-1.         -3.75273292  2.63473067],89
32,[-1.         -3.75273292  2.63473067],89
33,[-1.         -3.79728068  2.64807433],89
34,[-1.         -3.75552653  2.54279147],79
35,[-1.         -3.8314001   2.56918149],81
36,[-1.         -4.12379484  2.7496656 ],105
37,[-1.         -3.64910717  2.45417854],83
38,[-1.         -3.98801502  2.58357519],79
39,[-1.         -3.69075317  2.57653876],85
40,[-1.         -3.75552653  2.54279147],79
41,[-1.         -4.29957352  2.73972354],105
42,[-1.         -4.07493654  2.64424075],99
43,[-1.         -3.73735482  2.48817668],85
44,[-1.         -4.00164456  2.55568554],87
45,[-1.         -4.29957352  2.73972354],105
46,[-1.         -4.27355029  2.73980782],117
47,[-1.         -4.16898182  2.72524557],95
48,[-1.         -4.31554151  2.76147452],107
49,[-1.         -4.31554151  2.76147452],107
50,[-1.         -3.73735482  2.48817668],85
51,[-1.         -4.07493654  2.64424075],99
52,[-1.         -3.67811482  2.57284288],95
53,[-1.         -3.75552653  2.54279147],79
54,[-1.         -3.54811302  2.43356188],83
55,[-1.         -4.05471095  2.6913317 ],105
56,[-1.         -4.29957352  2.73972354],105
57,[-1.         -4.20773195  2.69158255],101
58,[-1.         -3.90275179  2.66832567],101
59,[-1.         -3.64551325  2.44003568],81
60,[-1.         -4.15892659  2.74708081],109
61,[-1.         -4.30177723  2.77258736],97
62,[-1.         -4.36759556  2.82081263],113
63,[-1.         -4.22369995  2.71333352],103
64,[-1.         -3.8314001   2.56918149],81
65,[-1.         -4.31554151  2.76147452],107
66,[-1.         -4.16957172  2.60044254],93
67,[-1.         -3.99099943  2.7023238 ],103
68,[-1.         -3.87015022  2.53551847],87
69,[-1.         -3.98801502  2.58357519],79
70,[-1.         -3.69075317  2.57653876],85
71,[-1.         -4.06966661  2.63677462],95
72,[-1.         -3.96199179  2.58365947],91
73,[-1.         -4.14295859  2.72532984],107
74,[-1.         -3.80537687  2.56926576],93
75,[-1.         -4.06966661  2.63677462],95
76,[-1.         -4.31554151  2.76147452],107
77,[-1.         -3.756782    2.50729369],87
78,[-1.         -4.01702266  2.70223953],91
79,[-1.         -3.99099943  2.7023238 ],103
80,[-1.         -3.8314001   2.56918149],81
81,[-1.         -3.7032354   2.56706952],93
82,[-1.         -4.18494982  2.74699654],97
83,[-1.         -3.75273292  2.63473067],89
84,[-1.         -4.20552824  2.65871873],109
85,[-1.         -4.11826149  2.69874669],101
86,[-1.         -4.29957352  2.73972354],105
87,[-1.         -4.18494982  2.74699654],97
88,[-1.         -3.80537687  2.56926576],93
89,[-1.         -3.84502964  2.54129183],89
90,[-1.         -4.31554151  2.76147452],107
91,[-1.         -3.64910717  2.45417854],83
92,[-1.         -4.15892659  2.74708081],109
93,[-1.         -4.06966661  2.63677462],95
94,[-1.         -3.8314001   2.56918149],81
95,[-1.         -3.64551325  2.44003568],81
96,[-1.         -3.67811482  2.57284288],95
97,[-1.         -4.29957352  2.73972354],105
98,[-1.         -4.11368667  2.61057774],105
99,[-1.         -3.83120837  2.7542141 ],85
100,[-1.         -4.09090454  2.66599173],101
101,[-1.         -4.31554151  2.76147452],107
102,[-1.         -4.31774522  2.79433834],99
103,[-1.         -4.11826149  2.69874669],101
104,[-1.         -3.98801502  2.58357519],79
105,[-1.         -3.54811302  2.43356188],83
106,[-1.         -3.96199179  2.58365947],91
107,[-1.         -3.89362451  2.6032639 ],95
108,[-1.         -4.00363779  2.70601969],93
109,[-1.         -4.31554151  2.76147452],107
110,[-1.         -3.7032354   2.56706952],93
111,[-1.         -4.31554151  2.76147452],107
112,[-1.         -3.79728068  2.64807433],89
113,[-1.         -4.22369995  2.71333352],103
114,[-1.         -4.04891331  2.64432503],111
115,[-1.         -3.69075317  2.57653876],85
116,[-1.         -3.67478518  2.55478779],83
117,[-1.         -3.60676313  2.4736987 ],75
118,[-1.         -4.16957172  2.60044254],93
119,[-1.         -3.73735482  2.48817668],85
120,[-1.         -3.79507697  2.61521051],97
121,[-1.         -3.75552653  2.54279147],79
122,[-1.         -3.75273292  2.63473067],89
123,[-1.         -4.01702266  2.70223953],91
124,[-1.         -4.01702266  2.70223953],91
125,[-1.         -3.69075317  2.57653876],85
126,[-1.         -3.64910717  2.45417854],83
127,[-1.         -3.54811302  2.43356188],83
128,[-1.         -3.53214502  2.4118109 ],81
129,[-1.         -4.05471095  2.6913317 ],105
130,[-1.         -3.79507697  2.61521051],97
131,[-1.         -3.67811482  2.57284288],95
132,[-1.         -4.20773195  2.69158255],101
133,[-1.         -4.00363779  2.70601969],93
134,[-1.         -3.53214502  2.4118109 ],81
135,[-1.         -4.15892659  2.74708081],109
136,[-1.         -3.64910717  2.45417854],83
137,[-1.         -3.73735482  2.48817668],85
138,[-1.         -3.80537687  2.56926576],93
139,[-1.         -3.69075317  2.57653876],85
140,[-1.         -3.80537687  2.56926576],93
141,[-1.         -3.69075317  2.57653876],85
142,[-1.         -3.59670789  2.49553395],89
143,[-1.         -3.64910717  2.45417854],83
144,[-1.         -3.88702087  2.56295853],79
145,[-1.         -3.96199179  2.58365947],91
146,[-1.         -4.29957352  2.73972354],105
147,[-1.         -3.69075317  2.57653876],85
148,[-1.         -3.53214502  2.4118109 ],81
149,[-1.         -4.07493654  2.64424075],99
150,[-1.         -4.01702266  2.70223953],91
151,[-1.         -4.31774522  2.79433834],99
152,[-1.         -4.18494982  2.74699654],97
153,[-1.         -3.87015022  2.53551847],87
154,[-1.         -3.7032354   2.56706952],93
155,[-1.         -3.74315245  2.53518335],79
156,[-1.         -3.86099764  2.56304281],91
157,[-1.         -3.75199669  2.53659507],105
158,[-1.         -4.15892659  2.74708081],109
159,[-1.         -4.00363779  2.70601969],93
160,[-1.         -3.75552653  2.54279147],79
161,[-1.         -3.73735482  2.48817668],85
162,[-1.         -4.00164456  2.55568554],87
163,[-1.         -3.54811302  2.43356188],83
164,[-1.         -3.59670789  2.49553395],89
165,[-1.         -4.16957172  2.60044254],93
166,[-1.         -4.18494982  2.74699654],97
167,[-1.         -3.82408461  2.73387485],109
168,[-1.         -3.64551325  2.44003568],81
169,[-1.         -3.75552653  2.54279147],79
170,[-1.         -3.80537687  2.56926576],93
171,[-1.         -4.00164456  2.55568554],87
172,[-1.         -3.67811482  2.57284288],95
173,[-1.         -3.73735482  2.48817668],85
174,[-1.         -3.99099943  2.7023238 ],103
175,[-1.         -4.06488131  2.666076  ],113
176,[-1.         -3.99099943  2.7023238 ],103
177,[-1.         -4.07493654  2.64424075],99
178,[-1.         -3.73735482  2.48817668],85
179,[-1.         -3.80537687  2.56926576],93
180,[-1.         -3.8314001   2.56918149],81
181,[-1.         -4.20773195  2.69158255],101
182,[-1.         -4.29957352  2.73972354],105
183,[-1.         -3.8314001   2.56918149],81
184,[-1.         -3.73735482  2.48817668],85
185,[-1.         -3.54811302  2.43356188],83
186,[-1.         -4.16898182  2.72524557],95
187,[-1.         -3.73735482  2.48817668],85
188,[-1.         -4.29957352  2.73972354],105
189,[-1.         -4.09090454  2.66599173],101
190,[-1.         -4.29957352  2.73972354],105
191,[-1.         -3.73735482  2.48817668],85
192,[-1.         -4.09090454  2.66599173],101
193,[-1.         -4.16957172  2.60044254],93
194,[-1.         -3.87015022  2.53551847],87
195,[-1.         -4.09090454  2.66599173],101
196,[-1.         -4.00164456  2.55568554],87
197,[-1.         -3.90275179  2.66832567],101
198,[-1.         -4.00164456  2.55568554],87
199,[-1.         -4.07493654  2.64424075],99
200,[-1.         -3.54811302  2.43356188],83
201,[-1.         -4.15892659  2.74708081],109
202,[-1.         -3.69075317  2.57653876],85
203,[-1.         -3.80537687  2.56926576],93
204,[-1.         -4.22369995  2.71333352],103
205,[-1.         -4.09090454  2.66599173],101
206,[-1.         -3.54811302  2.43356188],83
207,[-1.         -4.0129568   2.58604884],95
208,[-1.         -3.99099943  2.7023238 ],103
209,[-1.         -3.64551325  2.44003568],81
210,[-1.         -3.84736809  2.59093246],83
211,[-1.         -3.5807399   2.47378297],87
212,[-1.         -3.73735482  2.48817668],85
213,[-1.         -3.86099764  2.56304281],91
214,[-1.         -3.99099943  2.7023238 ],103
215,[-1.         -3.84604197  2.61759989],101
216,[-1.         -4.31554151  2.76147452],107
217,[-1.         -3.69075317  2.57653876],85
218,[-1.         -4.14295859  2.72532984],107
219,[-1.         -3.80537687  2.56926576],93
220,[-1.         -3.73735482  2.48817668],85
221,[-1.         -3.86099764  2.56304281],91
222,[-1.         -3.73735482  2.48817668],85
223,[-1.         -4.31554151  2.76147452],107
224,[-1.         -3.69075317  2.57653876],85
225,[-1.         -3.73735482  2.48817668],85
226,[-1.         -4.0129568   2.58604884],95
227,[-1.         -3.5807399   2.47378297],87
228,[-1.         -4.16957172  2.60044254],93
229,[-1.         -3.69075317  2.57653876],85
230,[-1.         -4.00363779  2.70601969],93
231,[-1.         -3.80537687  2.56926576],93
232,[-1.         -3.97562133  2.55576981],99
233,[-1.         -3.80537687  2.56926576],93
234,[-1.         -4.29957352  2.73972354],105
235,[-1.         -4.31554151  2.76147452],107
236,[-1.         -3.54811302  2.43356188],83
237,[-1.         -3.79728068  2.64807433],89
238,[-1.         -3.80537687  2.56926576],93
239,[-1.         -3.7032354   2.56706952],93
240,[-1.         -3.80537687  2.56926576],93
241,[-1.         -3.98801502  2.58357519],79
242,[-1.         -4.05471095  2.6913317 ],105
243,[-1.         -3.75273292  2.63473067],89
244,[-1.         -4.29957352  2.73972354],105
245,[-1.         -3.64551325  2.44003568],81
246,[-1.         -4.20773195  2.69158255],101
247,[-1.         -3.64910717  2.45417854],83
248,[-1.         -3.96199179  2.58365947],91
249,[-1.         -3.84736809  2.59093246],83
250,[-1.         -3.75552653  2.54279147],79
251,[-1.         -4.20773195  2.69158255],101
252,[-1.         -3.84604197  2.61759989],101
253,[-1.         -4.11826149  2.69874669],101
254,[-1.         -3.73735482  2.48817668],85
255,[-1.         -3.6421583   2.51456669],79
256,[-1.         -3.71133159  2.48826095],97
257,[-1.         -4.04891331  2.64432503],111
258,[-1.         -4.09090454  2.66599173],101
259,[-1.         -3.75552653  2.54279147],79
260,[-1.         -3.54811302  2.43356188],83
261,[-1.         -3.82408461  2.73387485],109
262,[-1.         -4.31554151  2.76147452],107
263,[-1.         -3.79507697  2.61521051],97
264,[-1.         -4.36759556  2.82081263],113
265,[-1.         -3.90275179  2.66832567],101
266,[-1.         -4.20552824  2.65871873],109
267,[-1.         -4.01702266  2.70223953],91
268,[-1.         -3.64551325  2.44003568],81
269,[-1.         -4.00363779  2.70601969],93
270,[-1.         -3.75273292  2.63473067],89
271,[-1.         -3.64910717  2.45417854],83
272,[-1.         -3.98801502  2.58357519],79
273,[-1.         -3.84604197  2.61759989],101
274,[-1.         -4.06966661  2.63677462],95
275,[-1.         -4.0129568   2.58604884],95
276,[-1.         -3.87015022  2.53551847],87
277,[-1.         -3.88702087  2.56295853],79
278,[-1.         -4.07493654  2.64424075],99
279,[-1.         -3.67811482  2.57284288],95
280,[-1.         -3.97562133  2.55576981],99
281,[-1.         -3.73735482  2.48817668],85
282,[-1.         -4.29957352  2.73972354],105
283,[-1.         -3.73735482  2.48817668],85
284,[-1.         -4.00164456  2.55568554],87
285,[-1.         -3.80537687  2.56926576],93
286,[-1.         -4.16898182  2.72524557],95
287,[-1.         -3.73735482  2.48817668],85
288,[-1.         -4.20773195  2.69158255],101
289,[-1.         -3.54811302  2.43356188],83
290,[-1.         -3.73735482  2.48817668],85
291,[-1.         -3.96199179  2.58365947],91
292,[-1.         -3.86099764  2.56304281],91
293,[-1.         -3.64551325  2.44003568],81
294,[-1.         -3.73735482  2.48817668],85
295,[-1.         -4.18494982  2.74699654],97
296,[-1.         -4.31554151  2.76147452],107
297,[-1.         -3.69408281  2.59459385],97
298,[-1.         -3.96199179  2.58365947],91
299,[-1.         -3.84736809  2.59093246],83
300,[-1.         -3.79728068  2.64807433],89
301,[-1.         -3.75273292  2.63473067],89
302,[-1.         -3.75552653  2.54279147],79
303,[-1.         -4.31554151  2.76147452],107
304,[-1.         -3.79728068  2.64807433],89
305,[-1.         -3.80537687  2.56926576],93
306,[-1.         -4.11368667  2.61057774],105
307,[-1.         -3.75552653  2.54279147],79
308,[-1.         -3.73735482  2.48817668],85
309,[-1.         -3.71133159  2.48826095],97
310,[-1.         -3.96199179  2.58365947],91
311,[-1.         -3.67811482  2.57284288],95
312,[-1.         -4.16957172  2.60044254],93
313,[-1.         -4.18494982  2.74699654],97
314,[-1.         -3.69075317  2.57653876],85
315,[-1.         -3.73735482  2.48817668],85
316,[-1.         -3.75552653  2.54279147],79
317,[-1.         -3.80537687  2.56926576],93
318,[-1.         -4.18494982  2.74699654],97
319,[-1.         -3.69075317  2.57653876],85
320,[-1.         -3.73735482  2.48817668],85
321,[-1.         -4.04891331  2.64432503],111
322,[-1.         -3.69075317  2.57653876],85
323,[-1.         -3.69075317  2.57653876],85
324,[-1.         -3.64551325  2.44003568],81
325,[-1.         -3.86099764  2.56304281],91
326,[-1.         -3.79507697  2.61521051],97
327,[-1.         -4.18494982  2.74699654],97
328,[-1.         -3.75552653  2.54279147],79
329,[-1.         -3.54811302  2.43356188],83
330,[-1.         -3.75552653  2.54279147],79
331,[-1.         -3.79728068  2.64807433],89
332,[-1.         -3.64551325  2.44003568],81
333,[-1.         -3.99854563  2.92377413],93
334,[-1.         -3.75552653  2.54279147],79
335,[-1.         -4.04891331  2.64432503],111
336,[-1.         -3.69075317  2.57653876],85
337,[-1.         -4.14295859  2.72532984],107
338,[-1.         -4.18494982  2.74699654],97
339,[-1.         -3.73735482  2.48817668],85
340,[-1.         -3.84604197  2.61759989],101
341,[-1.         -3.69075317  2.57653876],85
342,[-1.         -3.99099943  2.7023238 ],103
343,[-1.         -3.75552653  2.54279147],79
344,[-1.         -3.75552653  2.54279147],79
345,[-1.         -3.73735482  2.48817668],85
346,[-1.         -4.14295859  2.72532984],107
347,[-1.         -4.31774522  2.79433834],99
348,[-1.         -3.75552653  2.54279147],79
349,[-1.         -3.75552653  2.54279147],79
350,[-1.         -3.83120837  2.7542141 ],85
351,[-1.         -4.22369995  2.71333352],103
352,[-1.         -3.7032354   2.56706952],93
353,[-1.         -3.98089126  2.56323594],103
354,[-1.         -3.88702087  2.56295853],79
355,[-1.         -3.74315245  2.53518335],79
356,[-1.         -3.96199179  2.58365947],91
357,[-1.         -3.64910717  2.45417854],83
358,[-1.         -3.73735482  2.48817668],85
359,[-1.         -3.73735482  2.48817668],85
360,[-1.         -3.75552653  2.54279147],79
361,[-1.         -3.79728068  2.64807433],89
362,[-1.         -3.98089126  2.56323594],103
363,[-1.         -3.90275179  2.66832567],101
364,[-1.         -3.86099764  2.56304281],91
365,[-1.         -3.75199669  2.53659507],105
366,[-1.         -4.09090454  2.66599173],101
367,[-1.         -3.7032354   2.56706952],93
368,[-1.         -4.03898003  2.58596457],83
369,[-1.         -4.20552824  2.65871873],109
370,[-1.         -4.16957172  2.60044254],93
371,[-1.         -4.29957352  2.73972354],105
372,[-1.         -3.69408281  2.59459385],97
373,[-1.         -3.80537687  2.56926576],93
374,[-1.         -3.80537687  2.56926576],93
375,[-1.         -4.20773195  2.69158255],101
376,[-1.         -4.01702266  2.70223953],91
377,[-1.         -3.96199179  2.58365947],91
378,[-1.         -4.18494982  2.74699654],97
379,[-1.         -3.96199179  2.58365947],91
380,[-1.         -4.16957172  2.60044254],93
381,[-1.         -4.36759556  2.82081263],113
382,[-1.         -4.20773195  2.69158255],101
383,[-1.         -3.64551325  2.44003568],81
384,[-1.         -4.20773195  2.69158255],101
385,[-1.         -4.22162577  2.65978066],99
386,[-1.         -3.87015022  2.53551847],87
387,[-1.         -3.73735482  2.48817668],85
388,[-1.         -3.99854563  2.92377413],93
389,[-1.         -4.31554151  2.76147452],107
390,[-1.         -4.18494982  2.74699654],97
391,[-1.         -3.79728068  2.64807433],89
392,[-1.         -3.73735482  2.48817668],85
393,[-1.         -4.07493654  2.64424075],99
394,[-1.         -3.73735482  2.48817668],85
395,[-1.         -3.54811302  2.43356188],83
396,[-1.         -4.29957352  2.73972354],105
397,[-1.         -3.84502964  2.54129183],89
398,[-1.         -4.30177723  2.77258736],97
399,[-1.         -4.31554151  2.76147452],107
400,[-1.         -4.29957352  2.73972354],105
401,[-1.         -3.99099943  2.7023238 ],103
402,[-1.         -3.73735482  2.48817668],85
403,[-1.         -3.8314001   2.56918149],81
404,[-1.         -4.09090454  2.66599173],101
405,[-1.         -4.11826149  2.69874669],101
406,[-1.         -3.73735482  2.48817668],85
407,[-1.         -3.83120837  2.7542141 ],85
408,[-1.         -3.75552653  2.54279147],79
409,[-1.         -4.09090454  2.66599173],101
410,[-1.         -3.74746299  2.62726454],85
411,[-1.         -4.31554151  2.76147452],107
412,[-1.         -3.5807399   2.47378297],87
413,[-1.         -4.00164456  2.55568554],87
414,[-1.         -3.75552653  2.54279147],79
415,[-1.         -4.09090454  2.66599173],101
416,[-1.         -3.81091022  2.62018467],97
417,[-1.         -4.16957172  2.60044254],93
418,[-1.         -4.04891331  2.64432503],111
419,[-1.         -3.75552653  2.54279147],79
420,[-1.         -4.16957172  2.60044254],93
421,[-1.         -3.75552653  2.54279147],79
422,[-1.         -3.5807399   2.47378297],87
423,[-1.         -3.99099943  2.7023238 ],103
424,[-1.         -3.89942215  2.65027058],89
425,[-1.         -3.79728068  2.64807433],89
426,[-1.         -3.59670789  2.49553395],89
427,[-1.         -3.84736809  2.59093246],83
428,[-1.         -4.22369995  2.71333352],103
429,[-1.         -3.98801502  2.58357519],79
430,[-1.         -3.69075317  2.57653876],85
431,[-1.         -4.20773195  2.69158255],101
432,[-1.         -4.06966661  2.63677462],95
433,[-1.         -3.86099764  2.56304281],91
434,[-1.         -3.87015022  2.53551847],87
435,[-1.         -3.69075317  2.57653876],85
436,[-1.         -3.75552653  2.54279147],79
437,[-1.         -3.75552653  2.54279147],79
438,[-1.         -3.79728068  2.64807433],89
439,[-1.         -3.5807399   2.47378297],87
440,[-1.         -4.16957172  2.60044254],93
441,[-1.         -3.64551325  2.44003568],81
442,[-1.         -3.86099764  2.56304281],91
443,[-1.         -4.09090454  2.66599173],101
444,[-1.         -4.00164456  2.55568554],87
445,[-1.         -3.89362451  2.6032639 ],95
446,[-1.         -4.31774522  2.79433834],99
447,[-1.         -4.16898182  2.72524557],95
448,[-1.         -4.06966661  2.63677462],95
449,[-1.         -4.0129568   2.58604884],95
450,[-1.         -4.31554151  2.76147452],107
451,[-1.         -4.20773195  2.69158255],101
452,[-1.         -4.16957172  2.60044254],93
453,[-1.         -3.79728068  2.64807433],89
454,[-1.         -4.20773195  2.69158255],101
455,[-1.         -3.99099943  2.7023238 ],103
456,[-1.         -3.64551325  2.44003568],81
457,[-1.         -3.88702087  2.56295853],79
458,[-1.         -4.36759556  2.82081263],113
459,[-1.         -3.83120837  2.7542141 ],85
460,[-1.         -3.64551325  2.44003568],81
461,[-1.         -3.80537687  2.56926576],93
462,[-1.         -4.31554151  2.76147452],107
463,[-1.         -4.06966661  2.63677462],95
464,[-1.         -4.20552824  2.65871873],109
465,[-1.         -3.75552653  2.54279147],79
466,[-1.         -4.31554151  2.76147452],107
467,[-1.         -3.64910717  2.45417854],83
468,[-1.         -4.20552824  2.65871873],109
469,[-1.         -4.00164456  2.55568554],87
470,[-1.         -3.75273292  2.63473067],89
471,[-1.         -3.73735482  2.48817668],85
472,[-1.         -3.54811302  2.43356188],83
473,[-1.         -3.75552653  2.54279147],79
474,[-1.         -3.7032354   2.56706952],93
475,[-1.         -4.31554151  2.76147452],107
476,[-1.         -3.88702087  2.56295853],79
477,[-1.         -3.73735482  2.48817668],85
478,[-1.         -3.79728068  2.64807433],89
479,[-1.         -3.64910717  2.45417854],83
480,[-1.         -3.73735482  2.48817668],85
481,[-1.         -4.14295859  2.72532984],107
482,[-1.         -4.29957352  2.73972354],105
483,[-1.         -3.99854563  2.92377413],93
484,[-1.         -4.16957172  2.60044254],93
485,[-1.         -3.75199669  2.53659507],105
486,[-1.         -4.11826149  2.69874669],101
487,[-1.         -3.69075317  2.57653876],85
488,[-1.         -4.16898182  2.72524557],95
489,[-1.         -3.95504292  2.64404762],87
490,[-1.         -4.20552824  2.65871873],109
491,[-1.         -4.14295859  2.72532984],107
492,[-1.         -4.29957352  2.73972354],105
493,[-1.         -3.64551325  2.44003568],81
494,[-1.         -4.00363779  2.70601969],93
495,[-1.         -4.31774522  2.79433834],99
496,[-1.         -3.79507697  2.61521051],97
497,[-1.         -4.31554151  2.76147452],107
498,[-1.         -4.20552824  2.65871873],109
499,[-1.         -3.73735482  2.48817668],85
500,[-1.         -3.67811482  2.57284288],95
501,[-1.         -4.14295859  2.72532984],107
502,[-1.         -3.86099764  2.56304281],91
503,[-1.         -4.31554151  2.76147452],107
504,[-1.         -3.99854563  2.92377413],93
505,[-1.         -4.05603707  2.66466428],87
506,[-1.         -3.73735482  2.48817668],85
507,[-1.         -3.69075317  2.57653876],85
508,[-1.         -3.97562133  2.55576981],99
509,[-1.         -3.84604197  2.61759989],101
510,[-1.         -3.84502964  2.54129183],89
511,[-1.         -3.98089126  2.56323594],103
512,[-1.         -3.7032354   2.56706952],93
513,[-1.         -4.07493654  2.64424075],99
514,[-1.         -4.20773195  2.69158255],101
515,[-1.         -4.20773195  2.69158255],101
516,[-1.         -4.07493654  2.64424075],99
517,[-1.         -4.31554151  2.76147452],107
518,[-1.         -4.14295859  2.72532984],107
519,[-1.         -4.06966661  2.63677462],95
520,[-1.         -3.87015022  2.53551847],87
521,[-1.         -4.09090454  2.66599173],101
522,[-1.         -3.80537687  2.56926576],93
523,[-1.         -3.64910717  2.45417854],83
524,[-1.         -4.29957352  2.73972354],105
525,[-1.         -4.14295859  2.72532984],107
526,[-1.         -3.75273292  2.63473067],89
527,[-1.         -4.22369995  2.71333352],103
528,[-1.         -4.18494982  2.74699654],97
529,[-1.         -4.09090454  2.66599173],101
530,[-1.         -3.79507697  2.61521051],97
531,[-1.         -3.53214502  2.4118109 ],81
532,[-1.         -3.73735482  2.48817668],85
533,[-1.         -3.83120837  2.7542141 ],85
534,[-1.         -3.73735482  2.48817668],85
535,[-1.         -3.99854563  2.92377413],93
536,[-1.         -3.99099943  2.7023238 ],103
537,[-1.         -4.29957352  2.73972354],105
538,[-1.         -4.20773195  2.69158255],101
539,[-1.         -3.79728068  2.64807433],89
540,[-1.         -4.06488131  2.666076  ],113
541,[-1.         -3.73735482  2.48817668],85
542,[-1.         -4.29957352  2.73972354],105
543,[-1.         -3.99099943  2.7023238 ],103
544,[-1.         -3.87015022  2.53551847],87
545,[-1.         -4.09090454  2.66599173],101
546,[-1.         -4.16957172  2.60044254],93
547,[-1.         -3.73735482  2.48817668],85
548,[-1.         -3.54811302  2.43356188],83
549,[-1.         -4.31554151  2.76147452],107
550,[-1.         -4.31554151  2.76147452],107
551,[-1.         -4.09090454  2.66599173],101
552,[-1.         -3.64551325  2.44003568],81
553,[-1.         -4.18494982  2.74699654],97
554,[-1.         -4.29957352  2.73972354],105
555,[-1.         -4.15892659  2.74708081],109
556,[-1.         -3.86099764  2.56304281],91
557,[-1.         -3.87015022  2.53551847],87
558,[-1.         -3.96066567  2.61032689],109
559,[-1.         -3.75273292  2.63473067],89
560,[-1.         -3.5807399   2.47378297],87
561,[-1.         -3.67811482  2.57284288],95
562,[-1.         -4.29957352  2.73972354],105
563,[-1.         -3.86099764  2.56304281],91
564,[-1.         -4.31554151  2.76147452],107
565,[-1.         -3.84502964  2.54129183],89
566,[-1.         -4.20552824  2.65871873],109
567,[-1.         -4.36759556  2.82081263],113
568,[-1.         -4.20552824  2.65871873],109
569,[-1.         -4.15892659  2.74708081],109
570,[-1.         -3.96199179  2.58365947],91
571,[-1.         -3.84736809  2.59093246],83
572,[-1.         -3.84604197  2.61759989],101
573,[-1.         -4.16957172  2.60044254],93
574,[-1.         -3.99099943  2.7023238 ],103
575,[-1.         -3.73735482  2.48817668],85
576,[-1.         -4.20773195  2.69158255],101
577,[-1.         -3.79728068  2.64807433],89
578,[-1.         -3.88702087  2.56295853],79
579,[-1.         -4.06966661  2.63677462],95
580,[-1.         -3.60482284  2.48428766],83
581,[-1.         -4.11368667  2.61057774],105
582,[-1.         -3.5807399   2.47378297],87
583,[-1.         -3.80537687  2.56926576],93
584,[-1.         -3.5807399   2.47378297],87
585,[-1.         -4.16957172  2.60044254],93
586,[-1.         -3.75273292  2.63473067],89
587,[-1.         -4.11368667  2.61057774],105
588,[-1.         -3.99854563  2.92377413],93
589,[-1.         -3.84736809  2.59093246],83
590,[-1.         -3.54811302  2.43356188],83
591,[-1.         -4.29957352  2.73972354],105
592,[-1.         -4.20773195  2.69158255],101
593,[-1.         -4.0129568   2.58604884],95
594,[-1.         -3.67811482  2.57284288],95
595,[-1.         -3.77830866  2.48737748],83
596,[-1.         -3.96199179  2.58365947],91
597,[-1.         -4.06966661  2.63677462],95
598,[-1.         -3.756782    2.50729369],87
599,[-1.         -3.75552653  2.54279147],79
600,[-1.         -4.31554151  2.76147452],107
601,[-1.         -4.31554151  2.76147452],107
602,[-1.         -3.99099943  2.7023238 ],103
603,[-1.         -3.7135353   2.52112477],89
604,[-1.         -4.20552824  2.65871873],109
605,[-1.         -3.99099943  2.7023238 ],103
606,[-1.         -4.16957172  2.60044254],93
607,[-1.         -3.75273292  2.63473067],89
608,[-1.         -3.83120837  2.7542141 ],85
609,[-1.         -3.756782    2.50729369],87
610,[-1.         -3.64551325  2.44003568],81
611,[-1.         -3.75552653  2.54279147],79
612,[-1.         -3.79728068  2.64807433],89
613,[-1.         -3.99854563  2.92377413],93
614,[-1.         -4.29957352  2.73972354],105
615,[-1.         -4.22162577  2.65978066],99
616,[-1.         -3.67811482  2.57284288],95
617,[-1.         -4.18494982  2.74699654],97
618,[-1.         -4.0129568   2.58604884],95
619,[-1.         -3.96199179  2.58365947],91
620,[-1.         -4.06966661  2.63677462],95
621,[-1.         -3.9641955   2.61652329],83
622,[-1.         -3.73735482  2.48817668],85
623,[-1.         -3.99099943  2.7023238 ],103
624,[-1.         -3.69075317  2.57653876],85
625,[-1.         -3.99854563  2.92377413],93
626,[-1.         -4.36759556  2.82081263],113
627,[-1.         -4.01702266  2.70223953],91
628,[-1.         -3.99854563  2.92377413],93
629,[-1.         -3.83120837  2.7542141 ],85
630,[-1.         -4.15892659  2.74708081],109
631,[-1.         -4.14295859  2.72532984],107
632,[-1.         -3.79728068  2.64807433],89
633,[-1.         -4.31554151  2.76147452],107
634,[-1.         -3.5807399   2.47378297],87
635,[-1.         -4.05471095  2.6913317 ],105
636,[-1.         -3.8314001   2.56918149],81
637,[-1.         -4.31554151  2.76147452],107
638,[-1.         -4.31554151  2.76147452],107
639,[-1.         -4.01702266  2.70223953],91
640,[-1.         -3.75273292  2.63473067],89
641,[-1.         -3.99854563  2.92377413],93
642,[-1.         -3.7032354   2.56706952],93
643,[-1.         -4.20773195  2.69158255],101
644,[-1.         -3.96199179  2.58365947],91
645,[-1.         -4.07493654  2.64424075],99
646,[-1.         -3.75552653  2.54279147],79
647,[-1.         -3.7032354   2.56706952],93
648,[-1.         -4.22369995  2.71333352],103
649,[-1.         -4.31554151  2.76147452],107
650,[-1.         -4.31554151  2.76147452],107
651,[-1.         -4.01702266  2.70223953],91
652,[-1.         -3.95504292  2.64404762],87
653,[-1.         -3.64910717  2.45417854],83
654,[-1.         -4.29957352  2.73972354],105
655,[-1.         -3.86099764  2.56304281],91
656,[-1.         -3.67811482  2.57284288],95
657,[-1.         -4.00164456  2.55568554],87
658,[-1.         -3.98801502  2.58357519],79
659,[-1.         -3.98801502  2.58357519],79
660,[-1.         -4.29957352  2.73972354],105
661,[-1.         -3.88702087  2.56295853],79
662,[-1.         -4.06488131  2.666076  ],113
663,[-1.         -4.20552824  2.65871873],109
664,[-1.         -3.73735482  2.48817668],85
665,[-1.         -4.20773195  2.69158255],101
666,[-1.         -3.7032354   2.56706952],93
667,[-1.         -3.75273292  2.63473067],89
668,[-1.         -4.07493654  2.64424075],99
669,[-1.         -4.16957172  2.60044254],93
670,[-1.         -3.88702087  2.56295853],79
671,[-1.         -3.99099943  2.7023238 ],103
672,[-1.         -4.01702266  2.70223953],91
673,[-1.         -4.31554151  2.76147452],107
674,[-1.         -3.67811482  2.57284288],95
675,[-1.         -4.15892659  2.74708081],109
676,[-1.         -3.73735482  2.48817668],85
677,[-1.         -3.96199179  2.58365947],91
678,[-1.         -3.73735482  2.48817668],85
679,[-1.         -3.73735482  2.48817668],85
680,[-1.         -4.36759556  2.82081263],113
681,[-1.         -3.7032354   2.56706952],93
682,[-1.         -4.16957172  2.60044254],93
683,[-1.         -3.73735482  2.48817668],85
684,[-1.         -3.99854563  2.92377413],93
685,[-1.         -3.69408281  2.59459385],97
686,[-1.         -4.07493654  2.64424075],99
687,[-1.         -3.73735482  2.48817668],85
688,[-1.         -4.00363779  2.70601969],93
689,[-1.         -3.72670969  2.63481495],101
690,[-1.         -3.64910717  2.45417854],83
691,[-1.         -3.7032354   2.56706952],93
692,[-1.         -3.87015022  2.53551847],87
693,[-1.         -4.18494982  2.74699654],97
694,[-1.         -3.73735482  2.48817668],85
695,[-1.         -3.75273292  2.63473067],89
696,[-1.         -4.31554151  2.76147452],107
697,[-1.         -3.60676313  2.4736987 ],75
698,[-1.         -3.73735482  2.48817668],85
699,[-1.         -3.54811302  2.43356188],83
700,[-1.         -3.59670789  2.49553395],89
701,[-1.         -4.31554151  2.76147452],107
702,[-1.         -3.96199179  2.58365947],91
703,[-1.         -4.20552824  2.65871873],109
704,[-1.         -3.73955853  2.5210405 ],77
705,[-1.         -3.73735482  2.48817668],85
706,[-1.         -3.9641955   2.61652329],83
707,[-1.         -3.87015022  2.53551847],87
708,[-1.         -3.75199669  2.53659507],105
709,[-1.         -3.99099943  2.7023238 ],103
710,[-1.         -3.75273292  2.63473067],89
711,[-1.         -3.75273292  2.63473067],89
712,[-1.         -4.06966661  2.63677462],95
713,[-1.         -4.31774522  2.79433834],99
714,[-1.         -3.84502964  2.54129183],89
715,[-1.         -4.06488131  2.666076  ],113
716,[-1.         -4.20552824  2.65871873],109
717,[-1.         -3.79507697  2.61521051],97
718,[-1.         -4.29957352  2.73972354],105
719,[-1.         -3.80537687  2.56926576],93
720,[-1.         -3.7032354   2.56706952],93
721,[-1.         -3.7032354   2.56706952],93
722,[-1.         -3.80537687  2.56926576],93
723,[-1.         -4.31774522  2.79433834],99
724,[-1.         -3.87015022  2.53551847],87
725,[-1.         -4.20773195  2.69158255],101
726,[-1.         -4.00164456  2.55568554],87
727,[-1.         -3.87015022  2.53551847],87
728,[-1.         -3.75552653  2.54279147],79
729,[-1.         -3.75552653  2.54279147],79
730,[-1.         -3.69075317  2.57653876],85
731,[-1.         -4.20552824  2.65871873],109
732,[-1.         -4.16957172  2.60044254],93
733,[-1.         -4.11368667  2.61057774],105
734,[-1.         -4.07493654  2.64424075],99
735,[-1.         -3.5807399   2.47378297],87
736,[-1.         -3.73735482  2.48817668],85
737,[-1.         -4.31554151  2.76147452],107
738,[-1.         -4.16957172  2.60044254],93
739,[-1.         -4.29957352  2.73972354],105
740,[-1.         -4.31554151  2.76147452],107
741,[-1.         -4.09090454  2.66599173],101
742,[-1.         -4.31554151  2.76147452],107
743,[-1.         -4.31554151  2.76147452],107
744,[-1.         -3.67811482  2.57284288],95
745,[-1.         -3.88702087  2.56295853],79
746,[-1.         -3.80537687  2.56926576],93
747,[-1.         -4.20773195  2.69158255],101
748,[-1.         -3.8314001   2.56918149],81
749,[-1.         -4.31554151  2.76147452],107
750,[-1.         -3.79728068  2.64807433],89
751,[-1.         -4.29957352  2.73972354],105
752,[-1.         -3.80537687  2.56926576],93
753,[-1.         -3.95504292  2.64404762],87
754,[-1.         -3.80537687  2.56926576],93
755,[-1.         -3.84736809  2.59093246],83
756,[-1.         -4.22369995  2.71333352],103
757,[-1.         -4.20773195  2.69158255],101
758,[-1.         -4.07493654  2.64424075],99
759,[-1.         -3.96199179  2.58365947],91
760,[-1.         -3.79507697  2.61521051],97
761,[-1.         -3.54811302  2.43356188],83
762,[-1.         -3.84736809  2.59093246],83
763,[-1.         -4.31554151  2.76147452],107
764,[-1.         -3.86099764  2.56304281],91
765,[-1.         -3.74746299  2.62726454],85
766,[-1.         -4.29957352  2.73972354],105
767,[-1.         -3.64551325  2.44003568],81
768,[-1.         -4.22369995  2.71333352],103
769,[-1.         -3.73735482  2.48817668],85
770,[-1.         -4.04891331  2.64432503],111
771,[-1.         -4.20773195  2.69158255],101
772,[-1.         -4.22369995  2.71333352],103
773,[-1.         -4.07493654  2.64424075],99
774,[-1.         -3.73735482  2.48817668],85
775,[-1.         -3.79728068  2.64807433],89
776,[-1.         -4.00363779  2.70601969],93
777,[-1.         -4.05603707  2.66466428],87
778,[-1.         -4.20552824  2.65871873],109
779,[-1.         -3.84502964  2.54129183],89
780,[-1.         -4.09090454  2.66599173],101
781,[-1.         -4.18494982  2.74699654],97
782,[-1.         -3.54478338  2.41550679],71
783,[-1.         -3.71133159  2.48826095],97
784,[-1.         -3.79507697  2.61521051],97
785,[-1.         -4.06966661  2.63677462],95
786,[-1.         -4.22162577  2.65978066],99
787,[-1.         -3.80537687  2.56926576],93
788,[-1.         -4.36759556  2.82081263],113
789,[-1.         -3.99099943  2.7023238 ],103
790,[-1.         -4.18494982  2.74699654],97
791,[-1.         -4.09090454  2.66599173],101
792,[-1.         -3.69075317  2.57653876],85
793,[-1.         -4.31554151  2.76147452],107
794,[-1.         -3.82408461  2.73387485],109
795,[-1.         -3.69075317  2.57653876],85
796,[-1.         -3.64551325  2.44003568],81
797,[-1.         -4.09090454  2.66599173],101
798,[-1.         -4.11368667  2.61057774],105
799,[-1.         -3.97562133  2.55576981],99
800,[-1.         -3.69075317  2.57653876],85
801,[-1.         -3.83120837  2.7542141 ],85
802,[-1.         -4.00164456  2.55568554],87
803,[-1.         -3.87015022  2.53551847],87
804,[-1.         -4.18494982  2.74699654],97
805,[-1.         -3.54811302  2.43356188],83
806,[-1.         -4.16898182  2.72524557],95
807,[-1.         -3.99854563  2.92377413],93
808,[-1.         -4.30177723  2.77258736],97
809,[-1.         -3.73735482  2.48817668],85
810,[-1.         -4.22162577  2.65978066],99
811,[-1.         -4.20773195  2.69158255],101
812,[-1.         -3.64551325  2.44003568],81
813,[-1.         -4.36759556  2.82081263],113
814,[-1.         -3.69075317  2.57653876],85
815,[-1.         -4.15892659  2.74708081],109
816,[-1.         -4.31774522  2.79433834],99
817,[-1.         -4.01702266  2.70223953],91
818,[-1.         -3.75273292  2.63473067],89
819,[-1.         -3.73735482  2.48817668],85
820,[-1.         -3.96199179  2.58365947],91
821,[-1.         -3.99099943  2.7023238 ],103
822,[-1.         -3.96199179  2.58365947],91
823,[-1.         -3.7032354   2.56706952],93
824,[-1.         -4.16898182  2.72524557],95
825,[-1.         -3.88702087  2.56295853],79
826,[-1.         -3.79728068  2.64807433],89
827,[-1.         -3.75199669  2.53659507],105
828,[-1.         -4.00363779  2.70601969],93
829,[-1.         -3.8314001   2.56918149],81
830,[-1.         -3.73735482  2.48817668],85
831,[-1.         -4.15892659  2.74708081],109
832,[-1.         -3.73735482  2.48817668],85
833,[-1.         -3.7032354   2.56706952],93
834,[-1.         -3.64910717  2.45417854],83
835,[-1.         -4.29957352  2.73972354],105
836,[-1.         -3.73735482  2.48817668],85
837,[-1.         -4.36759556  2.82081263],113
838,[-1.         -3.73735482  2.48817668],85
839,[-1.         -3.53214502  2.4118109 ],81
840,[-1.         -3.69075317  2.57653876],85
841,[-1.         -4.07493654  2.64424075],99
842,[-1.         -4.15892659  2.74708081],109
843,[-1.         -4.07493654  2.64424075],99
844,[-1.         -4.20552824  2.65871873],109
845,[-1.         -4.31554151  2.76147452],107
846,[-1.         -4.01702266  2.70223953],91
847,[-1.         -3.75552653  2.54279147],79
848,[-1.         -4.36759556  2.82081263],113
849,[-1.         -3.88702087  2.56295853],79
850,[-1.         -3.67811482  2.57284288],95
851,[-1.         -4.29957352  2.73972354],105
852,[-1.         -3.69075317  2.57653876],85
853,[-1.         -3.86099764  2.56304281],91
854,[-1.         -3.73735482  2.48817668],85
855,[-1.         -3.73735482  2.48817668],85
856,[-1.         -3.80537687  2.56926576],93
857,[-1.         -4.05471095  2.6913317 ],105
858,[-1.         -3.84736809  2.59093246],83
859,[-1.         -3.64551325  2.44003568],81
860,[-1.         -3.96199179  2.58365947],91
861,[-1.         -3.80537687  2.56926576],93
862,[-1.         -3.64910717  2.45417854],83
863,[-1.         -3.88702087  2.56295853],79
864,[-1.         -4.29957352  2.73972354],105
865,[-1.         -3.88702087  2.56295853],79
866,[-1.         -3.75552653  2.54279147],79
867,[-1.         -3.84502964  2.54129183],89
868,[-1.         -4.01702266  2.70223953],91
869,[-1.         -4.31554151  2.76147452],107
870,[-1.         -3.83120837  2.7542141 ],85
871,[-1.         -3.69075317  2.57653876],85
872,[-1.         -3.64910717  2.45417854],83
873,[-1.         -3.71133159  2.48826095],97
874,[-1.         -4.15892659  2.74708081],109
875,[-1.         -3.86099764  2.56304281],91
876,[-1.         -3.99854563  2.92377413],93
877,[-1.         -3.99099943  2.7023238 ],103
878,[-1.         -3.74746299  2.62726454],85
879,[-1.         -3.7032354   2.56706952],93
880,[-1.         -3.73735482  2.48817668],85
881,[-1.         -4.11368667  2.61057774],105
882,[-1.         -3.99854563  2.92377413],93
883,[-1.         -4.29957352  2.73972354],105
884,[-1.         -4.00363779  2.70601969],93
885,[-1.         -3.8314001   2.56918149],81
886,[-1.         -3.97562133  2.55576981],99
887,[-1.         -4.14295859  2.72532984],107
888,[-1.         -4.29957352  2.73972354],105
889,[-1.         -3.75273292  2.63473067],89
890,[-1.         -4.29957352  2.73972354],105
891,[-1.         -4.20773195  2.69158255],101
892,[-1.         -3.64551325  2.44003568],81
893,[-1.         -3.69075317  2.57653876],85
894,[-1.         -4.00363779  2.70601969],93
895,[-1.         -4.29957352  2.73972354],105
896,[-1.         -4.29957352  2.73972354],105
897,[-1.         -3.79728068  2.64807433],89
898,[-1.         -3.86099764  2.56304281],91
899,[-1.         -4.07493654  2.64424075],99
900,[-1.         -4.00164456  2.55568554],87
901,[-1.         -3.53214502  2.4118109 ],81
902,[-1.         -4.16898182  2.72524557],95
903,[-1.         -4.18494982  2.74699654],97
904,[-1.         -3.98801502  2.58357519],79
905,[-1.         -3.73735482  2.48817668],85
906,[-1.         -4.20773195  2.69158255],101
907,[-1.         -3.99099943  2.7023238 ],103
908,[-1.        -3.7360287  2.5148441],103
909,[-1.         -4.00363779  2.70601969],93
910,[-1.         -3.73735482  2.48817668],85
911,[-1.         -3.90275179  2.66832567],101
912,[-1.         -4.20773195  2.69158255],101
913,[-1.         -3.73735482  2.48817668],85
914,[-1.         -3.73735482  2.48817668],85
915,[-1.         -3.64910717  2.45417854],83
916,[-1.         -3.75552653  2.54279147],79
917,[-1.         -4.04891331  2.64432503],111
918,[-1.         -3.64551325  2.44003568],81
919,[-1.         -4.20773195  2.69158255],101
920,[-1.         -4.02641992  2.6506057 ],97
921,[-1.         -3.67811482  2.57284288],95
922,[-1.         -4.06966661  2.63677462],95
923,[-1.         -3.69075317  2.57653876],85
924,[-1.         -3.73735482  2.48817668],85
925,[-1.         -3.86854383  2.78449313],81
926,[-1.         -3.79728068  2.64807433],89
927,[-1.         -4.01702266  2.70223953],91
928,[-1.         -3.80870651  2.58732085],105
929,[-1.         -4.15892659  2.74708081],109
930,[-1.         -4.14428472  2.69866242],89
931,[-1.         -4.16957172  2.60044254],93
932,[-1.         -3.7032354   2.56706952],93
933,[-1.         -3.74746299  2.62726454],85
934,[-1.         -4.18494982  2.74699654],97
935,[-1.         -3.73735482  2.48817668],85
936,[-1.         -4.09090454  2.66599173],101
937,[-1.         -3.64551325  2.44003568],81
938,[-1.         -3.88702087  2.56295853],79
939,[-1.         -4.09090454  2.66599173],101
940,[-1.         -3.64551325  2.44003568],81
941,[-1.         -4.07493654  2.64424075],99
942,[-1.         -3.84502964  2.54129183],89
943,[-1.         -4.29957352  2.73972354],105
944,[-1.         -3.69075317  2.57653876],85
945,[-1.         -3.73735482  2.48817668],85
946,[-1.         -4.31774522  2.79433834],99
947,[-1.         -3.70007218  2.45656791],87
948,[-1.         -3.5807399   2.47378297],87
949,[-1.         -4.07493654  2.64424075],99
950,[-1.         -3.80537687  2.56926576],93
951,[-1.         -3.99854563  2.92377413],93
952,[-1.         -3.75273292  2.63473067],89
953,[-1.         -3.69075317  2.57653876],85
954,[-1.         -3.67811482  2.57284288],95
955,[-1.         -4.18494982  2.74699654],97
956,[-1.         -4.20552824  2.65871873],109
957,[-1.         -3.79507697  2.61521051],97
958,[-1.         -3.69075317  2.57653876],85
959,[-1.         -3.75273292  2.63473067],89
960,[-1.         -4.05471095  2.6913317 ],105
961,[-1.         -3.64910717  2.45417854],83
962,[-1.         -4.16957172  2.60044254],93
963,[-1.         -3.84736809  2.59093246],83
964,[-1.         -4.29957352  2.73972354],105
965,[-1.         -3.75552653  2.54279147],79
966,[-1.         -3.7032354   2.56706952],93
967,[-1.         -3.59670789  2.49553395],89
968,[-1.         -3.73735482  2.48817668],85
969,[-1.         -3.73735482  2.48817668],85
970,[-1.         -3.81091022  2.62018467],97
971,[-1.         -4.16898182  2.72524557],95
972,[-1.         -3.99099943  2.7023238 ],103
973,[-1.         -4.0129568   2.58604884],95
974,[-1.         -4.20773195  2.69158255],101
975,[-1.         -3.64551325  2.44003568],81
976,[-1.         -3.86854383  2.78449313],81
977,[-1.         -4.05471095  2.6913317 ],105
978,[-1.         -4.31554151  2.76147452],107
979,[-1.         -3.97562133  2.55576981],99
980,[-1.         -3.98801502  2.58357519],79
981,[-1.         -3.73735482  2.48817668],85
982,[-1.         -4.29957352  2.73972354],105
983,[-1.         -4.22369995  2.71333352],103
984,[-1.         -4.15892659  2.74708081],109
985,[-1.         -4.31774522  2.79433834],99
986,[-1.         -3.69075317  2.57653876],85
987,[-1.         -4.05471095  2.6913317 ],105
988,[-1.         -4.09090454  2.66599173],101
989,[-1.         -3.73735482  2.48817668],85
990,[-1.         -3.54811302  2.43356188],83
991,[-1.         -3.80537687  2.56926576],93
992,[-1.         -4.18494982  2.74699654],97
993,[-1.         -3.73735482  2.48817668],85
994,[-1.         -3.53214502  2.4118109 ],81
995,[-1.         -3.83120837  2.7542141 ],85
996,[-1.         -3.75273292  2.63473067],89
997,[-1.         -3.59670789  2.49553395],89
998,[-1.         -4.31554151  2.76147452],107
999,[-1.        -3.7360287  2.5148441],103
